tree
version=v4
num_class=1
num_tree_per_iteration=1
label_index=0
max_feature_idx=8
objective=binary sigmoid:1
feature_names=Column_0 Column_1 Column_2 Column_3 Column_4 Column_5 Column_6 Column_7 Column_8
feature_infos=[0.00028325387393124402:0.088392831385135651] [0.0090223001316189766:0.21081291139125824] [0.99622929096221924:356.52896118164062] [0.00021410472982097417:0.07662346214056015] [-0.94405603408813477:0.93911880254745483] [20:199] [1:3] [2.5:5] [0:1]
tree_sizes=3338 3425 3421 3418 3414 3406 3426 3426 3436 3421 3461 3437 3438 3427 3445 3436 3462 3434 3459 3446 3441 3443 3447 3448 3445 3417 3438 3454 3429 3442 3445 3454 3442 3457 3443 3434 3440 3455 3431 3436 3463 3437 3438 3442 3456 3463 3431 3472 3459 3458 3446 3420 3441 3415 3473 3442 3435 3433 3427 3431 3447 3447 3438 3458 3439 3454 3437 3450 3409 3428 3436 3428 3418 3485 3451 3443 3459 3440 3420 3455 3479 3446 3454 3446 3449 3435 3460 3453 3458 3460 3443 3439 3418 3464 3448 3439 3474 3450 3413 3457 3436 3412 3408 3436 3410 3457 3451 3440 3433 3437 3459 3451 3464 3474 3448 3445 3444 3444 3430 3472 3434 3419 3432 3430 3460 3423 3455 3444 3423 3421 3449 3433 3435 3441 3448 3456 3432 3442 3420 3426 3450 3427 3415 3424 3427 3421 3446 3452 3426 3428 3460 3449 3419 3424 3449 3419 3422 3421 3425 3436 3416 3420 3419 3447 3409 3418 3414 3428 3455 3440 3448 3444 3444 3428 3425 3410 3437 3434 3436 3435 3427 3446 3438 3423 3439 3435 3408 3472 3411 3424 3424 3441 3437 3423 3442 3426 3429 3460 3448 3436

Tree=0
num_leaves=31
num_cat=0
split_feature=4 4 3 7 3 4 7 7 3 3 4 3 3 5 3 3 6 7 3 3 3 7 3 7 7 3 6 5 7 6
split_gain=18012.3 3495.37 2756.08 1859.18 1884.08 809.061 582.51 1042.56 599.387 1114.79 567.194 519.21 597.029 957.803 571.389 522.832 439.298 382.59 378.53 364.131 498.581 749.456 338.498 659.258 423.625 330.634 305.076 314.991 265.543 262.514
threshold=0.4682793021202088 -0.41082864999771113 0.052845405414700515 4.4450000000000012 0.017682230100035671 0.63540914654731762 3.4550000000000005 2.6750000000000003 0.039293192327022559 0.041068235412240035 0.092513144016265883 0.019262245856225494 0.039761723950505264 160.50000000000003 0.038341471925377853 0.020219183526933197 2.5000000000000004 4.8750000000000009 0.02129403501749039 0.021731840446591381 0.027422973886132244 4.245000000000001 0.017545954324305061 4.3050000000000006 4.1950000000000012 0.014681522268801929 1.5000000000000002 145.50000000000003 3.7850000000000006 2.5000000000000004
decision_type=2 2 2 2 2 2 2 2 2 2 2 2 2 2 2 2 2 2 2 2 2 2 2 2 2 2 2 2 2 2
left_child=1 -1 3 5 26 22 7 16 -9 -10 17 25 14 -14 15 28 -7 -3 -17 -20 21 -21 24 -24 -2 -8 27 -5 -13 -30
right_child=2 10 -4 4 -6 6 11 8 9 -11 -12 12 13 -15 -16 18 -18 -19 19 20 -22 -23 23 -25 -26 -27 -28 -29 29 -31
leaf_value=-1.4325690757851377 -1.3823195802700641 -1.4037057294705799 -1.1543268877761577 -1.2193021673989466 -1.1961658493641545 -1.3726042120133051 -1.3288166804072516 -1.1964069052056496 -1.3974073294483194 -1.1362943518066646 -1.3778920188258994 -1.1362943518066646 -1.1680263581301622 -1.3606820543115166 -1.42146385395548 -1.1362943518066646 -1.2451872778233148 -1.304212377542618 -1.4101345681935744 -1.1491707389741446 -1.3365814156353713 -1.3487943597229066 -1.3218482241449976 -1.4034686761056752 -1.2543819138094556 -1.1673502535847051 -1.3041132697444011 -1.4306441102467948 -1.434911770002653 -1.1362943518066646
leaf_weight=9266.3997928798199 948.47997879981995 4919.1998900473118 260.63999417424202 20.479999542236328 547.83998775482178 290.71999350190163 53.759998798370361 351.83999213576317 119.67999732494354 62.07999861240387 4946.2398894429207 8.4799998104572278 124.47999721765518 133.91999700665474 235.99999472498894 27.519999384880066 88.159998029470444 98.559997797012329 108.63999757170677 100.95999774336815 536.47998800873756 87.999998033046722 1341.119970023632 303.35999321937561 69.43999844789505 77.279998272657394 179.35999599099159 126.71999716758728 176.47999605536461 7.6799998283386222
leaf_count=57915 5928 30745 1629 128 3424 1817 336 2199 748 388 30914 53 778 837 1475 172 551 616 679 631 3353 550 8382 1896 434 483 1121 792 1103 48
internal_value=-1.3863 -1.41046 -1.31357 -1.32034 -1.25283 -1.33157 -1.31169 -1.27953 -1.2345 -1.30822 -1.38991 -1.32916 -1.33724 -1.26787 -1.35114 -1.3354 -1.34296 -1.40175 -1.31875 -1.32477 -1.31198 -1.24214 -1.35093 -1.3369 -1.37359 -1.23359 -1.34789 -1.40124 -1.40986 -1.42246
internal_weight=25620 19230.4 6389.6 6128.96 874.4 5254.56 2592.16 912.48 533.6 181.76 9964 1679.68 1548.64 258.4 1290.24 1054.24 378.88 5017.76 861.6 834.08 725.44 188.96 2662.4 1644.48 1017.92 131.04 326.56 147.2 192.64 184.16
internal_count=160125 120190 39935 38306 5465 32841 16201 5703 3335 1136 62275 10498 9679 1615 8064 6589 2368 31361 5385 5213 4534 1181 16640 10278 6362 819 2041 920 1204 1151
is_linear=0
shrinkage=1


Tree=1
num_leaves=31
num_cat=0
split_feature=4 4 2 7 2 4 7 5 5 4 5 7 7 7 7 2 6 5 2 5 5 5 7 5 2 5 2 2 6 5
split_gain=15749.6 3191.85 2056.88 1440.27 1464.83 729.448 507.638 639.122 1791.79 480.765 467.831 580.208 387.126 302.33 585.521 441.198 320.308 304.693 403.533 377.004 301.262 289.359 288.906 275.244 266.414 258.021 242.555 372.287 459.088 263.188
threshold=0.45631435513496404 -0.41082864999771113 245.88967132568362 4.4450000000000012 82.275413513183608 0.62541183829307567 4.3750000000000009 124.50000000000001 64.500000000000014 0.15233571082353595 49.500000000000007 3.7850000000000006 3.8150000000000004 3.8450000000000002 3.1150000000000007 80.944648742675795 2.5000000000000004 148.50000000000003 83.153923034667983 71.500000000000014 107.50000000000001 195.50000000000003 4.8750000000000009 194.50000000000003 25.161914825439457 30.500000000000004 84.380317687988295 54.153392791748054 1.5000000000000002 158.50000000000003
decision_type=2 2 2 2 2 2 2 2 2 2 2 2 2 2 2 2 2 2 2 2 2 2 2 2 2 2 2 2 2 2
left_child=1 24 3 5 25 13 7 8 10 22 11 -7 -13 14 15 -2 -17 19 -19 -16 -8 26 -3 -9 -1 -5 27 28 29 -11
right_child=2 9 -4 4 -6 6 20 23 -10 21 -12 12 -14 -15 17 16 -18 18 -20 -21 -22 -23 -24 -25 -26 -27 -28 -29 -30 -31
leaf_value=-0.048489688809171344 -0.014364365474070434 -0.015302676815797204 0.19306215697321585 0.19865026344316103 0.16133291200494057 0.19099136469101696 -0.011724760800939194 0.048413615270367936 0.17801213797067297 0.17277883281130652 0.0026517036900218539 -0.050843058515021446 0.095474365426924473 0.011399947396714313 0.061586184219930812 0.032256856183260137 0.13741286693798915 0.22340714578396012 0.019146360068291329 0.16086112308204925 0.10703887168462366 0.16429089050108581 0.06013152285692433 0.15059104848450924 -0.022449615236320063 0.023795776494777973 0.030115580811507111 -0.0086448244144802389 0.013828536816567497 0.029067501582478353
leaf_weight=7887.6587145924568 472.09455627202988 5450.2847190648317 298.48308773338795 22.499202266335487 620.33450376987457 97.685155749320984 287.26940757036209 1411.4400694221258 461.2756512016058 80.081803679466248 299.59434141218662 71.537363529205322 122.81961934268475 1180.2593208700418 197.39607387781143 310.81245140731335 94.414677664637566 26.916752859950066 237.78088222444057 185.50446851551533 65.58855701982975 29.749264419078827 129.95525699853897 69.137895703315735 1121.9413969516754 338.7841289639473 939.91594880819321 2392.4840866327286 663.97142046689987 52.905448615550995
leaf_count=50703 2943 34367 1639 134 3486 565 1781 8502 2640 498 1827 458 719 7260 1204 1873 569 167 1434 1127 390 185 781 404 7212 2076 5845 14878 4129 329
internal_value=-6.46372e-05 -0.0237976 0.0646897 0.0588604 0.11472 0.0490539 0.0665373 0.0743628 0.104143 -0.00395534 0.0465495 0.0915826 0.041619 0.0303997 0.0451051 0.0184861 0.0567574 0.0811666 0.0399174 0.109682 0.0103508 0.00891226 -0.0135459 0.0531849 -0.045247 0.034685 0.00779286 0.00121445 0.0308122 0.115607
internal_weight=25620.6 18748.9 6871.63 6573.15 981.618 5591.53 2886.35 2533.49 1052.91 9739.35 591.636 292.042 194.357 2705.18 1524.92 877.322 405.227 647.598 264.698 382.901 352.858 4159.11 5580.24 1480.58 9009.6 361.283 4129.36 3189.44 796.959 132.987
internal_count=160125 118927 41198 39559 5696 33863 17286 15115 6209 61012 3569 1742 1177 16577 9317 5385 2442 3932 1601 2331 2171 25864 35148 8906 57915 2210 25679 19834 4956 827
is_linear=0
shrinkage=0.05


Tree=2
num_leaves=31
num_cat=0
split_feature=4 4 2 7 2 4 4 7 5 5 5 5 2 2 2 0 2 5 2 5 5 5 7 5 5 7 6 5 2 7
split_gain=13881.5 3017.52 1584.11 1154.3 1124.61 608.759 447.738 402.118 385.953 1309.52 389.075 440.251 374.095 320.448 283.139 285.389 272.15 519.561 534.784 263.572 453.439 310.892 678.243 502.574 535.785 345.447 341.865 281.417 258.995 247.467
threshold=0.45631435513496404 -0.41082864999771113 245.88967132568362 4.4450000000000012 82.275413513183608 0.63540914654731762 -0.023379143327474591 4.3050000000000006 124.50000000000001 64.500000000000014 49.500000000000007 27.500000000000004 110.5018882751465 185.01130676269534 35.106563568115241 0.018763228319585327 127.08273696899415 163.50000000000003 106.57639312744142 28.500000000000004 36.500000000000007 120.50000000000001 4.0850000000000009 65.500000000000014 49.500000000000007 2.6750000000000003 1.5000000000000002 107.50000000000001 25.161914825439457 4.6750000000000007
decision_type=2 2 2 2 2 2 2 2 2 2 2 2 2 2 2 2 2 2 2 2 2 2 2 2 2 2 2 2 2 2
left_child=1 28 3 5 29 19 -3 8 9 10 11 12 -7 -9 15 -8 17 18 -10 -2 -21 22 23 24 -22 -25 -23 -24 -1 -5
right_child=2 6 -4 4 -6 7 14 13 16 -11 -12 -13 -14 -15 -16 -17 -18 -19 -20 20 21 26 27 25 -26 -27 -28 -29 -30 -31
leaf_value=-0.047513049784148935 -0.015909095493052618 -0.017007945391718921 0.16658965975251269 0.10230494958843175 0.14090672883786376 -0.02374365178470568 0.045913170753863419 -0.00071882712525363505 0.02611505091090285 0.1548764433036233 0.0011960676698480842 0.14862318302248936 0.15899690066188024 0.13111280601535152 0.003167006812082063 0.24973407282414126 0.036802167304532382 0.177795642087619 0.20641865269819376 0.20430254949743951 0.18052706283345732 -0.011713632107174254 -0.0067141556563295847 0.022291533665399814 0.0032489716228495218 0.14391336968961396 0.036589250656892065 0.21855558148238427 -0.021632969678746505 0.008294089786790677
leaf_weight=7653.2876661121845 289.85311590135098 3855.9555339068174 327.76222948729992 93.948384255170822 673.22367605566978 108.27510625123978 127.28777271509171 358.35514441132545 277.74977006018162 466.40621854364872 289.13220408558846 135.64333362877369 37.777500778436661 52.900108397006989 5712.5298278033733 19.852980881929398 921.30492521822453 111.61978323757648 48.27289342880249 38.656431302428246 51.601762726902962 610.96905571222305 392.51765175163746 71.99568435549736 244.88062836229801 308.82252065837383 914.75687232613564 14.371477946639059 1106.4812766909599 274.61538772284985
leaf_count=50703 1759 24532 1639 545 3486 672 797 2205 1622 2426 1761 729 198 294 35559 124 5428 603 263 232 307 3708 2400 427 1464 1771 5507 87 7212 1665
internal_value=-0.000109946 -0.0229633 0.0592295 0.0540453 0.102469 0.0452655 -0.0037762 0.0619156 0.0697551 0.092724 0.0419412 0.083762 0.0235234 0.0162388 0.00493095 0.0734137 0.0522238 0.0846887 0.0528119 0.0293576 0.0343115 0.0317937 0.0522651 0.082917 0.0341036 0.12092 0.0172466 0.00124246 -0.044244 0.0322578
internal_weight=25590.8 18475.4 7115.41 6787.65 1041.79 5745.86 9715.63 2807.44 2396.18 1037.23 570.828 281.696 146.053 411.255 5859.67 147.141 1358.95 437.642 326.023 2938.43 2648.57 2609.92 1084.19 677.301 296.482 380.818 1525.73 406.889 8759.77 368.564
internal_count=160125 118927 41198 39559 5696 33863 61012 16201 13702 5786 3360 1599 870 2499 36480 921 7916 2488 1885 17662 15903 15671 6456 3969 1771 2198 9215 2487 57915 2210
is_linear=0
shrinkage=0.05


Tree=3
num_leaves=31
num_cat=0
split_feature=2 2 7 7 2 2 5 2 7 7 6 7 2 5 2 5 5 5 2 5 7 2 7 7 7 7 6 2 5 5
split_gain=11725.8 3119.92 1674.63 1081.19 760.153 669.389 525.269 409.558 398.964 645.921 1030.12 736.314 686.385 572.123 441.757 353.825 484.97 340.867 503.971 329.166 320.463 318.016 299.363 332.835 324.542 711.694 733.884 657.525 363.553 304.576
threshold=82.275413513183608 25.161914825439457 4.4450000000000012 4.3050000000000006 245.88967132568362 185.01130676269534 186.50000000000003 113.6311492919922 3.0750000000000006 3.8650000000000007 1.5000000000000002 4.1950000000000012 65.278057098388686 28.500000000000004 74.035900115966811 162.50000000000003 178.50000000000003 150.50000000000003 80.944648742675795 162.50000000000003 4.2650000000000006 48.515157699584968 2.5150000000000001 2.5250000000000004 3.2550000000000003 2.6750000000000003 1.5000000000000002 89.663349151611342 53.500000000000007 148.50000000000003
decision_type=2 2 2 2 2 2 2 2 2 2 2 2 2 2 2 2 2 2 2 2 2 2 2 2 2 2 2 2 2 2
left_child=1 -1 3 4 20 -5 -4 -8 15 10 17 -11 -12 -13 -14 -3 -17 18 -10 -19 22 -18 -2 -24 25 28 -27 -28 -25 -26
right_child=2 8 6 5 -6 -7 7 -9 9 11 12 13 14 -15 -16 16 21 19 -20 -21 -22 -23 23 24 29 26 27 -29 -30 -31
leaf_value=-0.043308529785689963 0.21107783072107963 -0.022591466985668676 0.12948073020076989 -0.019296165332362034 0.14072480513784383 0.11859871372988827 0.18658304313162488 -0.040559462564236877 0.16448540916601917 -0.024415840278410067 -0.0034667648931469156 0.14349514776124139 0.2190005406235947 0.0084539098289584443 0.051658723593698178 0.24926311617465441 -0.022301990277694229 -0.028429887041011299 -0.027894024552707827 0.11240732956166861 0.19481347459813125 0.11282693219428699 -0.042310842381546102 0.17730147523529444 0.054999644187302937 0.045986439787852725 0.041089599331311892 0.17462974835696091 0.018067555030679968 0.022493670093212077
leaf_weight=8287.3438914269209 28.588280498981476 2797.1029918342829 881.94514721632004 799.07144273817539 249.02389645576477 98.900824129581451 26.028962701559067 83.536046952009201 214.91276879608631 2579.4064894467592 1346.0766104608774 80.630458310246468 52.787691965699196 2877.3273555338383 155.94624495506287 24.999191924929619 151.770487383008 83.000498503446579 40.450587391853333 82.950367733836174 38.41707444190979 61.056542128324509 98.12319228053093 38.31908792257309 1713.0101581662893 361.81244756281376 124.18402338027954 357.65754576027393 555.33278435468674 1243.9130574315786
leaf_count=56232 161 17600 4418 4939 1172 526 133 480 1306 16284 8489 486 310 17959 923 156 981 528 242 512 215 373 581 208 9725 2058 704 1903 3242 7279
internal_value=-0.000145277 -0.0203504 0.0566757 0.0462542 0.0556595 -0.00410871 0.116654 0.013402 -0.0023134 0.00386672 0.0284072 -0.00489107 0.00961531 0.012135 0.0939786 -0.0176133 0.040935 0.0977565 0.134012 0.0419674 0.0510134 0.0164643 0.0497914 0.048765 0.0507988 0.0702887 0.0998025 0.140213 0.0283458 0.0413251
internal_weight=25533.6 18835.8 6697.86 5706.35 4808.38 897.972 991.51 109.565 10548.4 7513.49 1976.12 5537.36 1554.81 2957.96 208.734 3034.93 237.826 421.314 255.363 165.951 4559.36 212.827 4520.94 4492.35 4394.23 1437.31 843.654 481.842 593.652 2956.92
internal_count=160125 122381 37744 32713 27248 5465 5031 613 66149 47039 12310 34729 9722 18445 1233 19110 1510 2588 1548 1040 26076 1354 25861 25700 25119 8115 4665 2607 3450 17004
is_linear=0
shrinkage=0.05


Tree=4
num_leaves=31
num_cat=0
split_feature=2 2 7 7 2 2 5 7 7 6 7 2 5 2 2 5 5 5 5 2 5 5 7 2 2 7 1 2 2 2
split_gain=10404.9 2938.9 1382.28 927.447 632.468 577.062 423.778 363.386 571.791 856.694 671.568 584.248 469.501 345.149 326.388 317.959 365.718 284.052 918.53 632.506 390.644 315.739 496.438 409.001 409.687 281.366 277.23 273.245 265.164 253.18
threshold=82.275413513183608 25.161914825439457 4.4450000000000012 4.3050000000000006 245.88967132568362 185.01130676269534 186.50000000000003 3.0750000000000006 3.8650000000000007 1.5000000000000002 4.1950000000000012 65.278057098388686 28.500000000000004 113.6311492919922 74.035900115966811 162.50000000000003 178.50000000000003 66.500000000000014 124.50000000000001 89.149093627929702 103.50000000000001 163.50000000000003 4.1050000000000013 110.5018882751465 85.687705993652358 2.5850000000000004 0.094956405460834517 56.35603332519532 213.16177368164065 11.720889568328859
decision_type=2 2 2 2 2 2 2 2 2 2 2 2 2 2 2 2 2 2 2 2 2 2 2 2 2 2 2 2 2 2
left_child=1 29 3 4 17 -5 -4 15 9 26 -10 -11 -12 -8 -13 -3 -17 25 19 20 -19 28 23 24 -23 -2 -9 -18 -20 -1
right_child=2 7 6 5 -6 -7 13 8 10 11 12 14 -14 -15 -16 16 27 18 21 -21 -22 22 -24 -25 -26 -27 -28 -29 -30 -31
leaf_value=-0.051107113217243129 0.15797433534967364 -0.021765181861960563 0.11643993142570169 -0.018549024520275011 0.12702925471075349 0.1064831041717012 0.1636356303349302 0.053888958970423353 -0.023551083860153435 -0.0033005126069067126 0.12571827664939331 0.18505169545939054 0.0079897815562409279 -0.039418242808607062 0.04765539923038091 0.20549457726963599 -0.010903360428607838 -0.0077848965488579482 0.018388183640461488 0.11358169018563886 0.13596437211143472 0.017826779771038775 0.20968294416909761 0.032548210416059278 0.17285203323361845 0.020449725270225851 0.13376288575870235 0.13617937816288359 0.099880305218438103 -0.03338087469964901
leaf_weight=4074.0473971515894 38.518035590648651 2759.1128725856543 930.32172687351704 789.93228198587894 261.71972541511059 104.48930498957634 28.134123563766479 256.69601140916348 2541.3977803736925 1343.2608443200588 87.241218015551567 59.158633574843407 2891.8638143092394 81.703921556472778 160.47158086299896 28.695210456848145 176.2850096821785 206.08794666826725 1485.321540415287 831.57989530265331 61.325488239526749 66.564032897353172 52.95703150331974 631.32639189064503 118.46311116218567 1080.43878300488 188.34239907562733 38.467270076274872 107.01299116015434 3984.3895402550697
leaf_count=28511 196 17600 4418 4939 1172 526 133 1506 16284 8489 486 310 17959 480 923 156 1136 1164 8510 4260 323 384 293 3541 649 6170 1082 218 586 27721
internal_value=-0.000178073 -0.0196158 0.0523731 0.0429084 0.0513888 -0.00394236 0.105474 -0.002225 0.00364061 0.0264888 -0.00466977 0.00906096 0.0114374 0.0125924 0.0846639 -0.0169321 0.0378441 0.0471584 0.0540641 0.0920715 0.0251809 0.0370958 0.0613313 0.0517077 0.117081 0.0251838 0.087692 0.0154427 0.0238649 -0.0423426
internal_weight=25465.3 18589.4 6875.9 5835.74 4941.31 894.422 1040.16 10531 7528.43 2007.93 5520.5 1562.89 2979.11 109.838 219.63 3002.56 243.447 4679.6 3560.64 1098.99 267.413 2461.65 869.311 816.354 185.027 1118.96 445.038 214.752 1592.33 8058.44
internal_count=160125 122381 37744 32713 27248 5465 5031 66149 47039 12310 34729 9722 18445 613 1233 19110 1510 26076 19710 5747 1487 13963 4867 4574 1033 6366 2588 1354 9096 56232
is_linear=0
shrinkage=0.05


Tree=5
num_leaves=31
num_cat=0
split_feature=4 4 2 4 4 2 2 5 2 2 2 5 5 5 2 2 5 2 5 5 0 2 5 5 6 4 2 5 2 2
split_gain=10211.2 2593.76 864.601 620.223 462.214 295.762 498.453 433.704 555.881 239.506 225.443 212.225 306.595 695.923 373.398 285.675 279.401 237.989 213.885 450.437 208.304 206.469 179.19 209.195 179.001 223.083 172.459 199.608 166.919 165.36
threshold=0.4682793021202088 -0.4899314939975738 245.88967132568362 0.62541183829307567 -0.023379143327474591 178.40286254882815 185.01130676269534 148.50000000000003 243.93424224853518 81.641326904296889 35.106563568115241 27.500000000000004 106.50000000000001 64.500000000000014 156.13333129882815 110.5018882751465 108.50000000000001 168.29396820068362 49.500000000000007 51.500000000000007 0.018297754228115085 56.35603332519532 66.500000000000014 99.500000000000014 2.5000000000000004 0.71143269538879406 141.8599548339844 197.50000000000003 245.01734924316409 127.59909439086915
decision_type=2 2 2 2 2 2 2 2 2 2 2 2 2 2 2 2 2 2 2 2 2 2 2 2 2 2 2 2 2 2
left_child=1 -1 3 9 -3 11 -7 8 -8 21 20 15 13 14 18 -5 -14 -18 29 -20 -6 -2 -11 -24 25 -9 27 -12 -26 -13
right_child=2 4 -4 5 10 6 7 24 -10 22 26 12 16 -15 -16 -17 17 -19 19 -21 -22 -23 23 -25 28 -27 -28 -29 -30 -31
leaf_value=-0.043862459841544847 0.078515162111963688 -0.016785682489901671 0.12389085296170931 -0.023120996448293487 0.039951330166554458 -0.016687952277929123 0.1378457523809605 0.014830300489847832 -0.021768102180855026 0.014692418207021518 0.00066189892598188119 0.15355286512176103 -0.010243775228948242 0.14260659825523456 -0.021074734407270309 0.16145713498164474 0.061606083149043089 0.18907036389044929 -0.033785994638239281 0.12326858228946957 0.20571277121974874 0.005933090113494046 0.090163211968553036 0.040483099588725473 -0.01260818079262515 0.16972773463557939 0.055957574863425445 0.17826853341999513 0.10022268848220504 0.054346951314317264
leaf_weight=7111.7979751527309 107.31066486239433 4730.6941450089216 370.84234720468521 119.95981664955616 128.02073803544044 308.51551127433777 247.62334083020687 53.16599990427494 69.959427818655968 514.31868654489517 5839.274449557066 117.20308019220829 135.2479539513588 412.49646854400635 122.7014471590519 25.40191987156868 1523.3821794837713 37.522178694605827 95.224008962512016 87.6989825963974 22.246109038591385 1126.8046575039625 254.86686357855797 1256.8640257865191 239.18297503888607 41.30144938826561 147.09935717284679 15.862701296806334 37.983953788876534 65.467131450772285
leaf_count=50979 623 31355 1592 727 795 1889 1121 293 423 2854 36024 554 796 1923 693 119 8054 194 513 453 121 6847 1314 6843 1335 206 814 84 194 364
internal_value=-7.63106e-05 -0.0203798 0.0494907 0.0455493 -0.00503463 0.0594447 0.036134 0.0597788 0.102685 0.0296086 0.00400082 0.0679258 0.0712166 0.094791 0.0543979 0.00913398 0.0586967 0.0646702 0.0797282 0.0415109 0.0644913 0.0122444 0.0401856 0.0488588 0.0231132 0.0825519 0.00248643 0.00114307 0.00285457 0.117998
internal_weight=25366 17995 7371.05 7000.2 10883.2 3740.04 997.733 689.217 317.583 3260.16 6152.5 2742.31 2596.94 900.791 488.295 145.362 1696.15 1560.9 365.593 182.923 150.267 1234.12 2026.05 1511.73 371.634 94.4674 6002.24 5855.14 277.167 182.67
internal_count=160096 120172 39924 38332 69193 19851 5461 3572 1544 18481 37838 14390 13544 4500 2577 846 9044 8248 1884 966 916 7470 11011 8157 2028 499 36922 36108 1529 918
is_linear=0
shrinkage=0.05


Tree=6
num_leaves=31
num_cat=0
split_feature=4 4 4 7 2 2 2 2 2 7 5 2 6 7 7 7 5 5 6 2 6 5 6 7 7 5 7 7 7 5
split_gain=9218.91 1865.67 1326.98 693.592 539.194 430.776 351.038 414.442 382.947 311.737 457.097 324.389 301.679 290.756 420.427 407.386 381.148 602.661 372.63 354.704 652.499 650.97 272.213 268.399 441.559 283.29 278.094 329.798 256.32 253.638
threshold=0.20839744806289676 0.5489376187324525 -0.4899314939975738 4.4350000000000014 245.88967132568362 57.746229171752937 84.380317687988295 54.153392791748054 45.855806350708015 3.0750000000000006 117.50000000000001 52.076620101928718 2.5000000000000004 3.9450000000000007 3.9650000000000003 2.6750000000000003 64.500000000000014 114.50000000000001 2.5000000000000004 184.45829772949222 2.5000000000000004 153.50000000000003 2.5000000000000004 4.245000000000001 4.3750000000000009 30.500000000000004 4.035000000000001 2.7950000000000004 4.8750000000000009 49.500000000000007
decision_type=2 2 2 2 2 2 2 2 2 2 2 2 2 2 2 2 2 2 2 2 2 2 2 2 2 2 2 2 2 2
left_child=2 6 -1 4 13 -5 7 8 12 10 -10 -11 -2 15 -15 18 29 -18 -3 21 -21 -19 -8 26 -25 -26 27 -9 -4 -17
right_child=1 3 28 5 -6 -7 22 23 9 11 -12 -13 -14 14 -16 16 17 19 -20 20 -22 -23 -24 24 25 -27 -28 -29 -30 -31
leaf_value=-0.042945578504200083 0.078484848655625258 -0.0041444474957170341 -0.013702018641031995 -0.03202280796592076 0.11591748734511907 0.10147385279820319 0.017518607829417547 -0.032253277854583234 0.17627490276826591 0.1944824245827681 -0.037429476097958159 0.058121550358930879 -0.026390484420382932 -0.050432083924078858 0.03334212080391008 0.062546224995944991 0.12556847937132035 0.041770750762284536 0.082929246823935279 0.14515922235289377 -0.0068582581923995944 0.13676406615019085 0.059224423974149579 0.18854428442556115 0.16530893146617129 0.0064832280404658483 -0.03710795038663247 0.016514570462711466 0.043530770756559894 -0.0036613179390362657
leaf_weight=6905.7241883128881 96.007160410284996 506.69775134325027 6800.3022862672806 64.896723717451096 257.23862844705582 877.93671502172947 1277.13529920578 528.31898924708366 34.48911327123642 84.997074350714684 91.156124547123909 89.579516634345055 239.94640165567398 165.5854651927948 1567.5271419584751 266.87401385605335 418.20946161448956 488.14787493646145 162.20166973769665 86.835402563214302 377.27166403830051 286.02220503985882 564.04865896701813 37.813975438475609 29.302182629704475 670.75099836289883 767.4776701182127 1008.3075410723686 201.42338235676289 315.87271910905838
leaf_count=50979 564 2888 44633 388 1072 3949 7209 3368 212 489 568 537 1465 948 8717 1427 1880 2588 809 403 2132 1443 3017 223 152 4064 4848 6103 1205 1816
internal_value=-9.78076e-05 0.0333175 -0.027394 0.0530134 0.0454545 0.0922851 0.0124727 0.00355118 0.0402521 0.0812885 0.0212315 0.124512 0.00358027 0.0415492 0.0253381 0.0512102 0.0614383 0.0736736 0.0169701 0.0561469 0.0215845 0.0768667 0.0302952 -0.00412418 0.0221207 0.0131312 -0.0125289 -0.000252666 -0.0120556 0.026659
internal_weight=25268.1 11360.6 13907.4 5841.32 4898.48 942.833 5519.33 3678.15 636.175 300.222 125.645 174.577 335.954 4641.25 1733.11 2908.13 2239.23 1656.49 668.899 1238.28 464.107 774.17 1841.18 3041.97 737.867 700.053 2304.1 1536.63 7001.73 582.747
internal_count=160096 63279 96817 30460 26123 4337 32819 22593 3835 1806 780 1026 2029 25051 9665 15386 11689 8446 3697 6566 2535 4031 10226 18758 4439 4216 14319 9471 45838 3243
is_linear=0
shrinkage=0.05


Tree=7
num_leaves=31
num_cat=0
split_feature=4 4 4 7 2 7 7 2 2 2 2 5 7 7 7 7 5 6 6 5 5 7 5 7 7 7 2 2 5 5
split_gain=8328.69 1640.1 1272.1 535.427 475.415 399.065 448.043 396.851 370.273 352.327 296.511 296.348 287.424 557.241 308.659 520.578 714.846 304.917 285.13 278.275 267.545 257.742 389.746 264.509 235.773 554.076 277.135 332.889 250.418 423.392
threshold=0.20839744806289676 0.62541183829307567 -0.50178000330924977 4.4350000000000014 82.275413513183608 4.4450000000000012 4.3350000000000009 245.01734924316409 54.153392791748054 45.855806350708015 57.746229171752937 186.50000000000003 4.245000000000001 4.3850000000000007 4.035000000000001 3.3150000000000004 141.50000000000003 2.5000000000000004 2.5000000000000004 164.50000000000003 30.500000000000004 3.0750000000000006 117.50000000000001 4.8150000000000004 3.4550000000000005 2.6750000000000003 89.627227783203139 94.079864501953139 149.50000000000003 148.50000000000003
decision_type=2 2 2 2 2 2 2 2 2 2 2 2 2 2 2 2 2 2 2 2 2 2 2 2 2 2 2 2 2 2
left_child=2 4 -1 7 8 6 -6 24 9 18 -5 -7 14 -14 15 19 -17 -18 -2 -10 -15 22 -11 -23 25 -3 -26 -28 29 -27
right_child=1 3 -4 10 5 11 -8 -9 12 21 -12 -13 13 20 -16 16 17 -19 -20 -21 -22 23 -24 -25 26 28 27 -29 -30 -31
leaf_value=-0.042451238871229029 0.073694603437400738 0.017821367854980303 -0.011901308805355768 -0.043370269911773923 0.032071563058499404 0.08850491056148109 -0.023735084321035396 0.10798310673829942 -0.017437801914672743 0.15347782937693777 0.1056524403137315 -0.010092599981682094 0.17202986557660405 0.13982229291339962 -0.035268834218794419 0.15725366438494517 0.087925675791783897 -0.03380545828766994 -0.025762182777480803 0.078512492150477176 0.0061030364268305866 0.14755379161616136 -0.035420367967405532 0.013404318448906848 0.092564847039623047 0.089405413968832323 -0.030244985699749861 0.035406944563873839 0.1407257145034993 -0.032270479414318022
leaf_weight=6535.4191501736641 103.12573239207268 456.90848837792873 7119.7402299940586 35.274809345602989 2332.9463472664356 431.15918046236038 425.20859405398369 259.5398974865675 1279.4984132498503 39.29127000272274 621.15898610651493 92.572164297103882 59.056578814983368 39.375116318464279 807.06853826344013 117.28741019964218 76.425610214471817 157.36356717348099 239.24669945240021 80.307880029082298 748.25643911957741 144.53920693695545 89.522560477256775 49.271334365010262 180.97554053366184 498.85557092726231 218.44988517463207 1662.7849634736776 171.39568738639355 83.455139726400375
leaf_count=49701 579 2483 47116 214 12529 1956 2582 1089 8018 219 2661 525 317 188 5204 638 433 971 1482 445 4488 782 570 282 904 2319 1282 8855 775 489
internal_value=-0.000119915 0.0312299 -0.0265226 0.0561765 0.016938 0.0310658 0.0234682 0.0484703 0.0054318 0.0395242 0.0976444 0.0710773 -0.00130632 0.023895 -0.00978054 0.00224295 0.056523 0.00598841 0.00419512 -0.0117711 0.0127879 0.0770158 0.0221981 0.11345 0.0437508 0.0612662 0.0334685 0.0277834 0.0876031 0.0719672
internal_weight=25155.5 11500.3 13655.2 4188.8 7311.52 3281.89 2758.15 3532.37 4029.64 664.997 656.434 523.731 3364.64 846.688 2517.95 1710.88 351.077 233.789 342.372 1359.81 787.632 322.624 128.814 193.811 3272.83 1210.61 2062.21 1881.23 753.706 582.311
internal_count=160096 63279 96817 21071 42208 17592 15111 18196 24616 3914 2875 2481 20702 4993 15709 10505 2042 1404 2061 8463 4676 1853 789 1064 17107 6066 11041 10137 3583 2808
is_linear=0
shrinkage=0.05


Tree=8
num_leaves=31
num_cat=0
split_feature=4 4 4 2 2 2 2 4 5 6 6 2 2 2 5 2 6 5 2 5 5 5 5 5 6 5 5 5 2 5
split_gain=7533.87 1444.1 1217.51 520.836 277.238 323.424 272.732 255.916 234.29 231.138 223.404 211.309 195.897 332.417 255.125 310.429 262.155 492.061 280.519 262.43 254.272 249.951 232.059 240.174 206.657 204.872 253.801 237.104 242.894 396.385
threshold=0.20839744806289676 0.5489376187324525 -0.50178000330924977 245.88967132568362 84.380317687988295 54.153392791748054 45.855806350708015 0.76671838760375988 195.50000000000003 2.5000000000000004 2.5000000000000004 9.994720935821535 173.14479827880862 191.09049987792972 27.500000000000004 110.5018882751465 1.5000000000000002 134.50000000000003 123.12979125976564 163.50000000000003 70.500000000000014 154.50000000000003 157.50000000000003 183.50000000000003 2.5000000000000004 106.50000000000001 66.500000000000014 108.50000000000001 141.8599548339844 148.50000000000003
decision_type=2 2 2 2 2 2 2 2 2 2 2 2 2 2 2 2 2 2 2 2 2 2 2 2 2 2 2 2 2 2
left_child=2 4 -1 7 5 6 9 12 -7 -2 -6 -4 14 -14 15 -3 17 18 -16 -19 -20 -15 25 -24 -25 26 -18 -27 29 -29
right_child=1 3 11 -5 10 8 -8 -9 -10 -11 -12 -13 13 21 16 -17 22 19 20 -21 -22 -23 23 24 -26 27 -28 28 -30 -31
leaf_value=-0.041565482381837791 0.065061372018903982 -0.028275352369515807 -0.044308808335716765 0.10466640947542111 0.015006457234221874 -0.0049924434086314924 0.067349273521854505 0.065233278743985434 0.17560633010572393 -0.024572827873564424 0.052110030379262096 -0.0091221279200511349 -0.0095747367878998638 0.086453559794494136 0.095323173739415415 0.1478612588146701 0.039178576282744682 -0.019697684612345091 -0.0094848063645023017 0.050654487814970388 0.099440721438092031 0.011855502067420207 0.12086695682649969 0.024586319276913141 0.12268564033486194 -0.019041717662469856 0.095749745098177727 0.10345549445498273 0.0062523252209609401 0.0082750350600942855
leaf_weight=6345.8060730695724 104.11176647245884 209.32116095721722 456.11849696934223 359.24627788364887 1303.6168581545353 3007.1985012292862 324.99981957674026 1022.8623983412981 18.066149517893791 232.62134662270546 588.99400822818279 6610.6523236185312 520.59105318784714 224.44781175255775 301.25542026758194 28.410397559404373 414.39343976974487 494.4340505450964 175.05319961905479 181.11078721284866 77.207252934575081 224.71091830730438 252.08539037406445 188.11746309697628 75.125293552875519 184.92504161596298 380.13870692253113 280.63254730403423 264.93445158004761 179.25766071677208
leaf_count=49701 564 1228 3322 1452 7209 18669 1806 5082 89 1465 3017 43794 2840 1047 1435 128 2183 2776 905 910 361 1162 1175 982 355 1079 1738 1319 1331 972
internal_value=-0.00013836 0.0293355 -0.0256684 0.0462809 0.0109973 0.003012 0.0346756 0.0425875 -0.00391395 0.00314044 0.0265534 -0.0113932 0.0376127 0.0176168 0.0428729 -0.00722593 0.0463264 0.0278007 0.0627513 -0.000836557 0.0238531 0.0491327 0.0565846 0.0859854 0.0525823 0.0476946 0.0662447 0.0314938 0.044387 0.0663557
internal_weight=25030.4 11617.9 13412.6 6038.26 5579.61 3687 661.733 5679.01 3025.26 336.733 1892.61 7066.77 4656.15 969.75 3686.4 237.732 3448.67 1229.06 553.516 675.545 252.26 449.159 2219.61 515.328 263.243 1704.28 794.532 909.75 724.825 459.89
internal_count=160096 63279 96817 30460 32819 22593 3835 29008 18758 2029 10226 47116 23926 5049 18877 1356 17521 6387 2701 3686 1266 2209 11134 2512 1337 8622 3921 4701 3622 2291
is_linear=0
shrinkage=0.05


Tree=9
num_leaves=31
num_cat=0
split_feature=4 4 4 7 2 7 7 2 2 7 7 2 7 7 7 7 2 7 7 6 2 7 2 7 2 7 6 2 2 7
split_gain=6820.77 1292.97 1167.81 456.154 372.807 341.241 380.771 324.103 292.608 275.938 257.016 309.234 257.013 448.556 283.432 464.392 282.443 315.082 312.607 256.892 248.352 370.31 241.787 229.956 215.512 258.249 255.252 215.154 388.414 312.555
threshold=0.20839744806289676 0.62541183829307567 -0.53142488002777089 4.4350000000000014 82.275413513183608 4.4450000000000012 4.3350000000000009 245.01734924316409 54.153392791748054 4.8150000000000004 3.7650000000000001 39.650979995727546 4.245000000000001 4.3850000000000007 4.035000000000001 3.1150000000000007 80.944648742675795 3.4750000000000005 3.9950000000000006 1.5000000000000002 10.513801574707033 4.955000000000001 57.746229171752937 4.0150000000000006 113.6311492919922 4.7650000000000006 2.5000000000000004 127.08273696899415 106.57639312744142 4.3050000000000006
decision_type=2 2 2 2 2 2 2 2 2 2 2 2 2 2 2 2 2 2 2 2 2 2 2 2 2 2 2 2 2 2
left_child=2 4 -1 7 8 6 -6 27 9 10 -2 -12 14 -14 15 -10 17 19 -19 -17 -4 -22 -5 -20 -7 -26 -27 28 -3 -30
right_child=1 3 20 22 5 24 -8 -9 12 -11 11 -13 13 -15 -16 16 -18 18 23 -21 21 -23 -24 -25 25 26 -28 -29 29 -31
leaf_value=-0.0417160705802683 0.025884080853319936 0.038370744023493851 -0.043762735567423022 -0.042270901216257449 0.027963385167758509 0.10957890925319308 -0.023475297085360277 0.095479993957889045 -0.018551823726863627 -0.023480452833152012 0.0010724157518224842 0.14079365724138418 0.14925206503578833 0.011931985475848245 -0.034277794134404259 0.13335774903776906 -0.029655774817886418 0.14950425011207857 -0.032140361573626319 0.0053303427348535418 -0.009830676415863715 0.17538460939108741 0.093977154698889176 0.22416697929354257 0.089990867274640479 -0.020756296621374293 0.12341628909741298 0.027982246432387031 0.12764069420234184 0.010846507849762346
leaf_weight=5763.9076790511608 342.17081348598003 1000.4081174731255 558.83236797899008 34.302849978208542 2401.4434900283813 173.36556854844093 423.16478258371353 265.94271492958069 1057.2727179229259 158.61115200817585 56.701528012752533 131.30360804498196 64.290084674954414 792.99124592542648 789.45819163322449 45.329247176647186 134.11679825186729 124.38573008775711 51.059617191553116 288.91333645582199 6828.4506755843759 27.093937046825886 641.64591877162457 10.561191722750662 158.43161605298519 170.2755868434906 37.453089147806168 2046.9681243300438 252.65546561777592 74.077987849712372
leaf_count=46538 1967 5051 4263 214 12529 766 2582 1089 6751 948 328 671 317 4676 5204 236 826 618 320 1693 45859 157 2661 61 688 866 161 10539 1083 434
internal_value=-0.000151224 0.0275864 -0.0248348 0.049342 0.0149169 0.0272169 0.0202572 0.0423373 0.00469278 0.0343793 0.0516891 0.0986543 -0.00139578 0.02223 -0.00949382 0.00193728 0.035042 0.0517206 0.103881 0.0226931 -0.0117114 -0.00909868 0.0870629 0.0117882 0.0636534 0.041909 0.00523775 0.0381487 0.0538292 0.101161
internal_weight=24905.6 11727.3 13178.3 4316 7411.3 3364.13 2824.61 3640.05 4047.17 688.787 530.176 188.005 3358.38 857.281 2501.1 1711.64 654.366 520.249 186.007 334.243 7414.38 6855.54 675.949 61.6208 539.526 366.16 207.729 3374.11 1327.14 326.733
internal_count=160096 63279 96817 21071 42208 17592 15111 18196 24616 3914 2966 999 20702 4993 15709 10505 3754 2928 999 1929 50279 46016 2875 381 2481 1715 1027 17107 6568 1517
is_linear=0
shrinkage=0.05


Tree=10
num_leaves=31
num_cat=0
split_feature=4 4 4 7 2 7 7 2 7 2 7 7 6 2 2 2 4 4 2 6 2 2 7 2 7 2 2 2 7 2
split_gain=6214.61 1343.44 879.762 362.627 340.422 351.837 330.86 279.505 232.214 225.607 209.397 208.539 197.265 222.066 192.269 189.177 222.964 216.441 188.498 177.734 188.108 175.55 218.203 174.352 358.317 417.175 316.225 420.921 172.317 164.989
threshold=0.31699140369892126 -0.4899314939975738 0.63540914654731762 4.4350000000000014 82.275413513183608 4.4450000000000012 4.3050000000000006 245.01734924316409 2.8050000000000002 148.41545867919925 4.3750000000000009 4.955000000000001 2.5000000000000004 54.153392791748054 10.513801574707033 35.794797897338874 -0.19691149890422818 -0.023379143327474591 57.746229171752937 1.5000000000000002 141.72466278076175 11.720889568328859 4.9150000000000009 65.818477630615249 3.0550000000000002 72.520591735839858 64.129261016845717 57.621568679809577 2.6450000000000005 135.96923828125003
decision_type=2 2 2 2 2 2 2 2 2 2 2 2 2 2 2 2 2 2 2 2 2 2 2 2 2 2 2 2 2 2
left_child=1 21 4 7 8 6 -6 10 -2 -8 29 14 13 -10 -3 16 -16 -17 -5 -12 -21 -1 -23 26 -25 -26 27 -15 -18 -4
right_child=2 11 3 18 5 -7 9 -9 12 -11 19 -13 -14 23 15 17 28 -19 -20 20 -22 22 -24 24 25 -27 -28 -29 -30 -31
leaf_value=-0.047761382034707471 -0.024112182649593909 -0.042813914463105354 0.054108778390584179 -0.039360159008281825 0.029042081794046722 0.066904221169931818 -0.030288095489275919 0.09006900814977771 0.085996707203116626 0.087557198508394385 -0.04443902630966063 0.096629646981008135 -0.0032373447284042216 -0.0089747543137871991 -0.0032808023164017479 -0.023855693007762666 0.23740217571407418 -0.0038871943248772289 0.087476215286508174 -0.0067453837197055562 0.089295224367190104 -0.031351760723770272 0.32555775138523441 -0.032983447086243955 0.15416839800242013 0.033619916648996891 -0.036197892552940626 0.10134691694956438 0.030911509656722427 0.030083112659548918
leaf_weight=2994.0848619788885 548.80191913247108 394.91060392558575 1330.2198368310928 30.748944446444511 2359.1869168281555 506.4429729282856 395.03275935351849 265.74920178949833 134.70218981802464 45.267179593443871 135.80196411907673 47.191086128354073 1146.7130916714668 228.46738642454147 1579.7419613301754 2241.4496553093195 10.319354131817816 3439.2156981825829 618.49191580712795 139.69834096729755 80.285328254103661 3157.2459425777197 4.2881862074136725 123.53796480596066 97.424847736954689 272.52993720769882 303.3047693669796 139.10232564806938 482.75958551466465 1543.9439990222454
leaf_count=25223 3577 3032 6405 197 12059 2233 2454 1081 681 242 826 272 7041 1370 11086 15085 65 21498 2530 798 375 25747 33 781 489 1553 1909 755 3154 7701
internal_value=-7.79463e-05 -0.021433 0.0292621 0.0471524 0.0174926 0.028554 0.0216162 0.0407789 0.00528105 -0.0181724 0.0367235 -0.00817489 0.0118765 0.0252178 -0.00878186 -0.00704849 0.0058808 -0.0117663 0.0814691 0.000539287 0.0283056 -0.0390847 -0.0308677 0.0181865 0.0407454 0.0653655 0.00159219 0.0327752 0.035233 0.0412027
internal_weight=24796.7 14351.2 10445.5 4144.94 6300.51 3305.93 2799.49 3495.7 2994.58 440.3 3229.95 8195.59 2445.78 1299.07 8148.4 7753.49 2072.82 5680.67 649.241 355.786 219.984 6155.62 3161.53 1164.37 493.493 369.955 670.874 367.57 493.079 2874.16
internal_count=160252 105195 55057 19913 35144 16988 14755 17186 18156 2696 16105 54192 14579 7538 53920 50888 14305 36583 2727 1999 1173 51003 25780 6857 2823 2042 4034 2125 3219 14106
is_linear=0
shrinkage=0.05


Tree=11
num_leaves=31
num_cat=0
split_feature=4 4 4 2 2 2 5 5 5 6 2 5 2 6 2 5 4 2 4 5 5 1 0 0 2 6 2 2 5 2
split_gain=5635.57 1030.6 1010.78 376.132 261.679 237.123 232.273 225.403 218.137 198.07 221.671 250.863 207.206 200.561 281.872 232.27 196.054 182.643 218.146 239.422 253.665 264.678 166.118 163.776 158.302 173.059 153.437 293.637 206.249 274.354
threshold=0.20839744806289676 -0.53142488002777089 0.56977766752243053 245.88967132568362 84.380317687988295 10.513801574707033 195.50000000000003 192.50000000000003 23.500000000000004 2.5000000000000004 118.7877883911133 139.50000000000003 141.8599548339844 1.5000000000000002 123.12979125976564 148.50000000000003 0.76671838760375988 35.794797897338874 -0.32579675316810602 149.50000000000003 97.500000000000014 0.10116304457187654 0.02115833014249802 0.022733384743332866 54.153392791748054 1.5000000000000002 173.14479827880862 191.09049987792972 27.500000000000004 110.5018882751465
decision_type=2 2 2 2 2 2 2 2 2 2 2 2 2 2 2 2 2 2 2 2 2 2 2 2 2 2 2 2 2 2
left_child=1 -1 4 16 6 -3 7 24 23 12 11 -11 13 14 15 -6 26 18 -10 20 21 -20 -21 -7 25 -2 28 -28 29 -4
right_child=2 5 3 -5 9 8 -8 -9 17 10 -12 -13 -14 -15 -16 -17 -18 -19 19 22 -22 -23 -24 -25 -26 -27 27 -29 -30 -31
leaf_value=-0.039666598420951528 0.080932492360126937 -0.043276381289371058 -0.032620545907533036 0.089674053682390953 0.10411179168405221 0.043633562251426276 0.1430373242402109 -0.041545133598415808 -0.010542443622670416 0.053659888039935294 0.022729481039178753 0.16312180030574852 0.06004563341034818 -0.0074254292599650095 -0.014079463851091066 0.0090291114754892463 0.055469778625901495 -0.015532981060406943 0.023280669183879901 0.06330922174609048 -0.0094730244545751276 0.13886223316740962 0.23839331197229627 0.24298218993986637 -9.8905121877517548e-05 0.014917816085251518 -0.012115125712470072 0.043605149714294557 0.03986441008522007 0.12743890450399134
leaf_weight=5440.5580387786031 121.24963268637657 525.78361490368843 190.01718033850193 352.65241631865501 161.58619526028633 57.519819535315037 29.232709795236588 281.09925566613674 1461.0211313441396 221.93023344874382 422.37015625834465 68.497104004025459 210.29779553413391 869.90959994494915 183.69712865352631 106.602141097188 1078.5273990482092 4293.026549488306 230.29192601144314 106.27921597659588 547.72125633060932 63.103916078805923 15.526888608932493 12.551171392202376 2901.064115062356 547.86600318551064 506.61513823270798 443.36212128400803 3180.6154758930206 31.163198813796043
leaf_count=46574 569 4259 1096 1414 785 371 132 1812 10718 1095 2052 328 1014 4858 972 561 5111 28535 1521 698 3675 408 94 77 17948 3182 2716 2080 15464 133
internal_value=-9.16828e-05 -0.0231879 0.0246434 0.0396356 0.0104894 -0.0109281 0.00262907 0.00156332 -0.00842211 0.0240767 0.0458509 0.0794764 0.0139464 0.00661202 0.0336351 0.0663174 0.036386 -0.00933765 0.00163484 0.0201111 0.0106234 0.0481401 0.0856276 0.079341 0.00495747 0.0268803 0.0316564 0.01389 0.0366178 -0.010069
internal_weight=24661.7 12753.4 11908.4 5782.95 6125.4 7312.83 3880.51 3851.28 6787.04 2244.89 712.797 290.427 1532.09 1321.8 451.885 268.188 5430.3 6716.97 2423.94 962.923 841.117 293.396 121.806 70.071 3570.18 669.116 4351.77 949.977 3401.8 221.18
internal_count=160252 96930 63322 28014 35308 50356 23643 23511 46097 11665 3475 1423 8190 7176 2318 1346 26600 45649 17114 6396 5604 1929 792 448 21699 3751 21489 4796 16693 1229
is_linear=0
shrinkage=0.05


Tree=12
num_leaves=31
num_cat=0
split_feature=4 4 2 7 2 7 4 2 7 5 5 5 2 4 5 5 2 2 5 2 7 2 2 2 2 5 2 2 5 7
split_gain=5115.09 1305.66 641.047 418.305 397.419 353.7 242.728 230.241 220.139 251.324 806.693 297.94 412.702 248.769 242.426 500.914 259.896 216.524 216.078 209.934 201.542 197.114 391.539 192.488 183.207 180.09 303.256 178.886 174.713 167.034
threshold=-0.023379143327474591 0.53308415412902843 11.720889568328859 4.9150000000000009 245.88967132568362 4.4350000000000014 -0.53142488002777089 57.746229171752937 4.3050000000000006 120.50000000000001 66.500000000000014 163.50000000000003 135.96923828125003 0.78119832277297985 49.500000000000007 28.500000000000004 110.5018882751465 173.14479827880862 172.50000000000003 35.794797897338874 4.9450000000000012 141.8599548339844 167.85890960693362 35.106563568115241 191.09049987792972 149.50000000000003 29.57458591461182 82.275413513183608 27.500000000000004 4.245000000000001
decision_type=2 2 2 2 2 2 2 2 2 2 2 2 2 2 2 2 2 2 2 2 2 2 2 2 2 2 2 2 2 2
left_child=2 20 -1 6 5 8 -4 -7 9 10 14 13 -13 29 15 16 -3 -17 -14 25 23 -20 -23 -2 -19 -8 -27 -25 -29 -11
right_child=1 4 3 -5 -6 7 19 -9 -10 11 -12 12 18 -15 -16 17 -18 24 21 -21 -22 22 -24 27 -26 26 -28 28 -30 -31
leaf_value=-0.04544328752296501 0.06013767664521677 -0.030914122316151895 -0.031473237289493569 0.14402266442669395 0.085734016336050295 -0.026312413317213817 -0.0072179708234956499 0.066988031494382524 0.00058581147629384312 0.00065321773999084507 0.07872048187697267 0.088189171377243164 0.14608318783786484 0.064269641812083195 -0.0088830668103001571 0.12731618285851984 0.059867453279126875 -0.023175848094628922 -0.046034666659746939 -0.023249460552916115 0.074099630845177844 0.15939842152137007 0.0077916526816476182 -0.0018705310121000292 0.12442300941691498 0.014764348831444861 0.16167333824189475 0.14233248656233052 0.01393022992062108 0.15523604453483364
leaf_weight=3215.2007824331522 150.25408798456192 236.28857477009296 2627.7665939033031 39.358162090182304 370.93467323482037 71.342065900564194 1914.495250955224 903.9636519998312 668.72150760889053 1530.046869918704 932.41425165534019 336.10947436094284 30.76016366481781 181.65242956578732 526.96273212134838 157.88752122223377 118.31664946675301 57.871536761522293 121.00559538602829 2198.6766243427992 104.32645615935326 48.842644274234772 332.51524759829044 5280.8621275573969 33.019614592194557 272.57839129120111 40.324665755033493 26.850167661905289 1987.7528397589922 17.677062451839447
leaf_count=28518 872 1395 22708 222 1495 437 13666 3783 3742 7976 4042 1526 137 859 2792 681 538 298 581 15197 549 227 1674 33217 138 1939 257 133 10572 81
internal_value=-0.000103595 0.01933 -0.0269235 -0.0185288 0.0354381 0.0324793 -0.0194358 0.0601633 0.0274136 0.0312624 0.0442933 0.0209185 0.0447988 0.00891553 0.0158946 0.0375341 -0.00062418 0.0919243 0.0174432 -0.0122892 0.00508606 0.00956644 0.0272088 0.00411907 0.030445 -0.00147028 0.0336969 0.00296533 0.0156415 0.00241876
internal_weight=24534.8 14226.4 10308.4 7093.2 6676.33 6305.4 7053.84 975.306 5330.09 4661.37 2062.76 2598.61 869.233 1729.38 1130.35 603.384 354.605 248.779 533.124 4426.07 7550.05 502.363 381.358 7445.72 90.8912 2227.4 312.903 7295.47 2014.6 1547.72
internal_count=160252 77745 82507 53989 32402 30907 53767 4220 26687 22945 9884 13061 4145 8916 5842 3050 1933 1117 2619 31059 45343 2482 1901 44794 436 15862 2196 43922 10705 8057
is_linear=0
shrinkage=0.05


Tree=13
num_leaves=31
num_cat=0
split_feature=4 4 2 7 7 2 6 2 7 4 7 5 5 5 2 2 7 2 0 5 5 7 6 2 2 2 2 6 5 7
split_gain=4670.4 1214.85 588.067 388.347 336.309 299.185 282.449 239.557 226.622 217.339 203.598 206.353 817.07 267.085 312.961 225.477 187.616 185.021 192.798 180.758 169.839 166.117 164.62 163.977 348.576 154.816 183.778 182.106 156.928 148.564
threshold=-0.056179851293563836 0.51163747906684887 11.720889568328859 4.4450000000000012 4.9150000000000009 245.88967132568362 1.5000000000000002 67.45249176025392 4.3050000000000006 -0.61620694398879994 4.2650000000000006 120.50000000000001 66.500000000000014 163.50000000000003 135.96923828125003 213.16177368164065 2.5850000000000004 35.106563568115241 0.018297754228115085 172.50000000000003 20.500000000000004 4.9450000000000012 1.5000000000000002 141.8599548339844 167.85890960693362 185.01130676269534 82.275413513183608 1.5000000000000002 160.50000000000003 2.6750000000000003
decision_type=2 2 2 2 2 2 2 2 2 2 2 2 2 2 2 2 2 2 2 2 2 2 2 2 2 2 2 2 2 2
left_child=2 17 -1 5 9 8 7 -5 10 -4 11 12 16 15 22 -13 -3 18 -2 -16 -18 -19 -15 -21 -25 26 27 -10 -27 -14
right_child=1 3 4 6 -6 -7 -8 -9 25 -11 -12 13 29 14 19 -17 20 21 -20 23 -22 -23 -24 24 -26 28 -28 -29 -30 -31
leaf_value=-0.044723056952402092 0.030367504787352301 0.12435365372455061 -0.034513436148642433 -0.034971812777117597 0.1293975808208126 0.077881671700885308 0.078780029777111557 0.049654131108161421 -0.007252211063228535 -0.013939141424022521 0.12384177565487098 0.0029535907770808817 0.022661722547085355 0.028566354143140606 0.12758263161475381 0.07790219348085381 0.093462892424738236 0.0014068171978646852 0.16753038786445607 -0.042339244730247381 0.003928562074293096 0.066960693038980598 0.098386129860173574 0.14406400723862098 0.0060381545868896328 0.1271748978409456 -0.017777805242233775 0.15579697634347156 -0.0046331194435351572 0.080134776908622168
leaf_weight=3106.6810202002525 169.84155528247356 35.797135442495346 1732.1504971459508 113.33307652175426 38.259619802236557 280.63946065306664 706.56013433635235 319.03690394759178 36.859337091445923 4956.7494869381189 55.800844952464104 1696.7874466776848 129.17511233687401 126.36146384477615 34.20605793595314 106.65716847777367 55.592471823096275 7076.2918556630611 30.170474648475647 119.9116557687521 1121.1118667423725 97.978371694684029 254.37890775501728 52.751794099807739 344.2342344969511 44.918198347091675 596.42357884347439 31.985285639762878 45.411073237657547 867.95062419772148
leaf_count=28507 1016 151 15397 679 201 1141 2950 1287 185 36508 237 8859 622 631 148 469 245 43019 145 587 5932 504 1125 233 1727 189 3522 149 209 3678
internal_value=-0.000113158 0.0178765 -0.0267306 0.0325225 -0.0184215 0.0274703 0.059302 0.0274719 0.0250126 -0.019267 0.0288689 0.0277972 0.0391614 0.018617 0.0403526 0.00738611 0.011589 0.00362447 0.0510576 0.0162679 0.00815854 0.00230208 0.0752141 0.00890158 0.0243791 -0.000509704 -0.00884937 0.0685006 0.0609113 0.0726893
internal_weight=24384 14550.2 9833.84 7175.88 6727.16 6036.95 1138.93 432.37 5756.31 6688.9 5000.72 4944.92 2209.63 2735.29 931.844 1803.44 1212.5 7374.28 200.012 551.104 1176.7 7174.27 380.74 516.898 396.986 755.597 665.268 68.8446 90.3293 997.126
internal_count=160252 79639 80613 34955 52106 30039 4916 1966 28898 51905 24644 24407 10628 13779 4451 9328 6328 44684 1161 2695 6177 43523 1756 2547 1960 4254 3856 334 398 4300
is_linear=0
shrinkage=0.05


Tree=14
num_leaves=31
num_cat=0
split_feature=4 4 4 2 2 2 2 5 5 5 2 5 2 2 2 5 5 5 2 4 5 5 1 5 5 5 2 2 2 2
split_gain=4268.35 891.306 769.8 261.35 236.399 214.651 212.942 291.797 385.201 209.614 197.054 190.011 161.087 311.179 239.685 171.886 248.335 190.862 159.873 178.701 180.728 215.014 207.19 152.431 150.7 379.378 554.097 594.028 282.736 233.845
threshold=0.20839744806289676 -0.53142488002777089 0.63540914654731762 82.275413513183608 245.42525482177737 54.153392791748054 42.698419570922859 113.50000000000001 141.50000000000003 38.500000000000007 10.513801574707033 23.500000000000004 127.08273696899415 106.57639312744142 127.59909439086915 27.500000000000004 134.50000000000003 163.50000000000003 35.794797897338874 -0.32579675316810602 149.50000000000003 97.500000000000014 0.10022168233990671 36.500000000000007 84.500000000000014 27.500000000000004 57.746229171752937 80.944648742675795 69.796909332275405 67.45249176025392
decision_type=2 2 2 2 2 2 2 2 2 2 2 2 2 2 2 2 2 2 2 2 2 2 2 2 2 2 2 2 2 2
left_child=1 -1 3 5 12 6 -2 9 -9 -8 -3 -12 13 15 -14 -4 -17 -18 19 -13 21 22 -21 -16 25 28 -27 29 -7 -28
right_child=2 10 4 -5 -6 24 7 8 -10 -11 11 18 14 -15 23 16 17 -19 -20 20 -22 -23 -24 -25 -26 26 27 -29 -30 -31
leaf_value=-0.037226300069059547 -0.010050833542858821 -0.040728686308984734 -0.024737971865576712 0.021342633566086639 0.079926622160863936 -0.039983114002269865 0.02743643288748529 -0.035449666959578602 0.10354407320504272 0.12386380244721645 0.072875111616011554 -0.0093537419524959437 -0.048729944947926311 0.082998429754989167 0.088093752982320209 0.065986135884029837 -0.0056140065046109263 0.056781088320693257 -0.014267694658295783 0.020637320506135676 0.072997838705639681 -0.0089384106258310041 0.11794357402432898 0.027000104240241008 -0.0088317606433245665 -0.029180970470083722 0.16136807350447405 -0.037814778734324019 0.18315782446944914 0.071988074528362159
leaf_weight=4997.9924052879214 242.65491709113121 478.06886716932058 114.51379090547562 3677.3846727609634 312.71951104700565 311.21927377581596 91.880392134189606 160.18451727926731 72.365831196308136 145.77559423446655 72.731474407017231 1433.4136338084936 101.27648401260376 437.43142256140709 107.16773024201393 480.34210142493248 346.14830736815929 189.74802161753178 4205.7256494909525 231.35381919145584 131.12294219434261 542.38232530653477 71.64601232111454 2158.6479229778051 2440.733877107501 217.83751659095287 106.32183866202831 101.73451365530491 14.874368995428084 234.75761891901493
leaf_count=46574 1422 4259 670 18464 1291 2060 476 973 342 700 448 10718 495 1895 441 2103 1751 834 28535 1501 792 3675 428 10433 15101 1359 561 582 76 1293
internal_value=-0.000119409 -0.0210197 0.0209519 0.0116422 0.0380848 0.00302648 0.0279898 0.0476211 0.00780289 0.0865839 -0.00971698 -0.00750034 0.0347598 0.0471884 0.0265259 0.0333352 0.0398792 0.0164786 -0.00838398 0.00188412 0.0183802 0.00990874 0.0436459 0.0298897 -0.0021655 0.0143236 0.0361051 0.0682219 -0.0298048 0.0998498
internal_weight=24230.2 12164.4 12065.7 7817.72 4248 4140.34 712.861 470.206 232.55 237.656 7166.44 6688.38 3935.28 1568.18 2367.09 1130.75 1016.24 535.896 6615.64 2409.92 976.505 845.382 303 2265.82 3427.48 986.745 660.651 442.814 326.094 341.079
internal_count=160252 96930 63322 43409 19913 24945 3913 2491 1315 1176 50356 46097 18622 7253 11369 5358 4688 2585 45649 17114 6396 5604 1929 10874 21032 5931 3795 2436 2136 1854
is_linear=0
shrinkage=0.05


Tree=15
num_leaves=31
num_cat=0
split_feature=4 4 2 7 7 2 4 6 2 2 2 2 7 7 7 7 2 5 2 7 7 5 2 6 7 7 5 7 5 7
split_gain=3893.09 941.876 586.525 335.118 320.335 240.947 208.981 203.927 179.155 246.585 370.129 324.091 231.496 276.199 228.96 217.211 281.635 211.938 196.849 177.181 298.639 298.354 257.472 249.244 217.834 176.347 170.128 168.473 233.622 209.825
threshold=-0.023379143327474591 0.56977766752243053 11.720889568328859 4.9150000000000009 4.4350000000000014 245.88967132568362 -0.56728774309158314 1.5000000000000002 82.275413513183608 54.153392791748054 48.515157699584968 49.890344619750984 4.245000000000001 4.3850000000000007 3.0350000000000006 3.0750000000000006 52.076620101928718 30.500000000000004 81.641326904296889 4.035000000000001 3.1250000000000004 164.50000000000003 80.944648742675795 1.5000000000000002 3.9950000000000006 4.3750000000000009 107.50000000000001 4.4450000000000012 186.50000000000003 4.3350000000000009
decision_type=2 2 2 2 2 2 2 2 2 2 2 2 2 2 2 2 2 2 2 2 2 2 2 2 2 2 2 2 2 2
left_child=2 8 -1 6 5 25 -4 -6 9 10 -2 -12 18 -14 -13 -16 -17 -15 19 20 21 -11 23 24 -22 -3 -27 29 -29 -10
right_child=1 4 3 -5 7 -7 -8 -9 27 12 11 14 13 17 15 16 -18 -19 -20 -21 22 -23 -24 -25 -26 26 -28 28 -30 -31
leaf_value=-0.043458060786883662 0.0030261918775069232 0.02719023950626533 -0.030645347520718333 0.11658854722203967 0.02832552886658242 0.0741751834199572 -0.011686999014299015 0.076276267689458388 0.017388082776424046 -0.027308946016057635 0.148840238475035 0.16652579566184258 0.097708444042797382 0.11668049229253344 -0.046809880671156157 0.14681530272548177 0.020099568120356692 0.00049275714031323447 0.1887297185547025 -0.033916297268957812 0.12590958552370365 0.090530808129918219 -0.04763227299780258 0.015300591471357362 -0.040444303482598164 -0.021890062120027958 0.047610204383559063 0.065181962746684211 -0.025911618342308665 -0.025678163708043312
leaf_weight=2919.9847065061331 1491.6869995594025 4232.9604325294495 2112.4513373374939 46.849044039845467 355.285594150424 251.47987075150013 4660.6707029268146 589.84417971968651 1867.9440385401249 1169.8634144365788 75.796044513583183 30.752590209245682 89.63458850979805 41.100877225399017 82.36519393324852 55.085474610328674 214.97999054193497 871.10130715370178 11.925188496708868 851.65567633509636 101.95860630273819 56.298976674675941 124.69571176171303 506.3482388406992 24.385438412427902 360.00928016006947 116.56166933476925 326.61335828900337 89.718838647007942 333.29347299039364
leaf_count=28509 9308 20301 19679 234 1587 1049 34015 2429 9457 7776 401 165 466 183 533 279 1224 5227 65 5813 493 298 806 2995 149 2094 554 1418 503 2071
internal_value=-0.000318153 0.0162661 -0.0247066 -0.0166781 0.0315726 0.0264901 -0.0175999 0.058251 0.0055259 0.000625294 0.0151075 0.0543717 -0.00671431 0.0139573 0.0356853 0.0242683 0.0459459 0.0057278 -0.0139882 -0.0148408 -0.00665057 -0.0218984 0.0180346 0.0309767 0.0938019 0.0239438 -0.0048914 0.016384 0.0455515 0.0108673
internal_weight=24063.3 14323.3 9739.96 6819.97 5906.14 4961.01 6773.12 945.13 8417.2 5799.63 1950.67 458.979 3848.97 1001.84 383.183 352.431 270.065 912.202 2847.13 2835.21 1983.55 1226.16 757.388 632.692 126.344 4709.53 476.571 2617.57 416.332 2201.24
internal_count=160081 77644 82437 53928 28014 23998 53694 4016 49630 36181 11910 2602 24271 5876 2201 2036 1503 5410 18395 18330 12517 8074 4443 3637 642 22949 2648 13449 1921 11528
is_linear=0
shrinkage=0.05


Tree=16
num_leaves=31
num_cat=0
split_feature=4 4 2 7 7 2 2 7 6 7 7 2 2 0 4 2 1 4 7 7 2 4 7 2 7 2 2 2 7 2
split_gain=3554.01 888.994 531.348 330.252 274.112 251.758 422.22 348.996 517.833 371.376 320.369 262.87 242.918 229.704 183.57 167.809 177.867 142.725 132.125 185.571 128.924 139.696 119.081 185.606 397.585 197.832 147.682 146.879 327.48 258.232
threshold=-0.065836105495691286 0.51163747906684887 11.720889568328859 4.4350000000000014 4.9150000000000009 191.09049987792972 178.40286254882815 3.7250000000000005 2.5000000000000004 2.7950000000000004 2.6950000000000007 63.61742019653321 57.746229171752937 0.018897797912359241 -0.56728774309158314 35.106563568115241 0.10116304457187654 0.79968333244323742 2.6950000000000007 2.6150000000000007 35.794797897338874 -0.36672067642211909 4.5950000000000006 45.115535736083991 4.6750000000000007 64.129261016845717 141.8599548339844 54.153392791748054 4.4350000000000014 48.515157699584968
decision_type=2 2 2 2 2 2 2 2 2 2 2 2 2 2 2 2 2 2 2 2 2 2 2 2 2 2 2 2 2 2
left_child=2 15 -1 5 14 6 7 8 9 -3 -7 -10 -5 -9 -4 16 -2 -15 19 -13 21 -16 26 -24 -25 -26 27 28 29 -17
right_child=1 3 4 12 -6 10 -8 13 11 -11 -12 18 -14 17 20 22 -18 -19 -20 -21 -22 -23 23 24 25 -27 -28 -29 -30 -31
leaf_value=-0.042771146123784451 0.025164244679234556 -0.0074051449162111736 -0.029815397493456432 -0.027315070991743903 0.10748028860579172 -0.010702091086673526 -0.021135695591474601 0.027295932625070282 -0.0062695653890970831 0.04182209430790515 0.060256455385735902 0.11732857869817366 0.058289976957517892 -0.0083427539873336398 -0.013566354151057045 -0.0047461037679464311 0.14376854550264745 0.068155643197054402 0.11167032348424361 0.0089972473188148633 -0.021729824392185328 0.011016194220927646 -0.020189734767512957 0.14948142083649493 0.056324474869719768 0.0019955222255329265 0.036880876611401096 -0.0077174914333691383 0.1553765508649127 0.04273963958763325
leaf_weight=2821.3231126964092 180.20476569235325 608.468535348773 2063.940873645246 89.761869430541992 44.125197172164917 199.54080218076706 600.68664473295212 1038.4877054989338 77.263378575444221 1034.5209964364767 784.23414470255375 69.966112270951271 1079.4372622817755 1198.2951206713915 1509.2634596899152 1209.4015577584505 38.33538706600666 64.241529688239098 320.02784717082977 90.87782683968544 1819.3698643818498 936.53946404159069 264.68902193009853 62.164806380867958 238.86515517532825 561.32537053525448 243.79123325645924 4252.2117737531662 37.817055881023407 375.09916833043098
leaf_count=28490 1068 3224 19679 552 210 999 3279 5212 442 4717 3383 297 4525 6263 11973 7832 177 290 1343 402 13127 6397 1673 316 1354 3158 1152 26149 207 2191
internal_value=-0.000317277 0.0149168 -0.0247057 0.0273794 -0.0167085 0.0227042 0.0182392 0.0234927 0.0377261 0.0235912 0.0458638 0.0793354 0.0517179 0.00987727 -0.0175743 0.00280163 0.0459693 -0.00445029 0.0930899 0.0561207 -0.0116508 -0.00415328 0.00149957 0.0164346 0.027676 0.0182133 -0.00125159 -0.00283408 0.00996571 0.00649521
internal_weight=23914.3 14719.7 9194.56 7255.81 6373.24 6086.61 5102.84 4502.15 2201.12 1642.99 983.775 558.135 1169.2 2301.02 6329.11 7463.91 218.54 1262.54 480.872 160.844 4265.17 2445.8 7245.37 1127.04 862.355 800.191 6118.32 5874.53 1622.32 1584.5
internal_count=160081 80205 79876 34928 51386 29851 25469 22190 10425 7941 4382 2484 5077 11765 51176 45277 1245 6553 2042 699 31497 18370 44032 6501 4828 4512 37531 36379 10230 10023
is_linear=0
shrinkage=0.05


Tree=17
num_leaves=31
num_cat=0
split_feature=4 4 2 2 7 7 4 2 2 2 2 2 7 7 7 7 7 5 2 5 7 2 5 2 2 5 7 2 2 2
split_gain=3249.17 767.58 545.786 274.917 259.528 235.784 186.222 166.882 154.505 206.613 282.375 258.75 197.791 243.344 187.597 179.596 280.36 258.618 221.375 177.487 167.69 226.801 150.013 149.449 461.685 274.717 248.913 149.325 197.743 211.307
threshold=-0.023379143327474591 0.56977766752243053 11.720889568328859 245.88967132568362 4.9150000000000009 4.4350000000000014 -0.56728774309158314 57.746229171752937 82.275413513183608 54.153392791748054 48.515157699584968 49.890344619750984 4.245000000000001 4.3850000000000007 2.9650000000000003 4.035000000000001 3.1250000000000004 164.50000000000003 55.808071136474616 30.500000000000004 3.0750000000000006 52.076620101928718 53.500000000000007 69.796909332275405 65.818477630615249 84.500000000000014 4.8050000000000006 80.944648742675795 63.61742019653321 66.910102844238295
decision_type=2 2 2 2 2 2 2 2 2 2 2 2 2 2 2 2 2 2 2 2 2 2 2 2 2 2 2 2 2 2
left_child=2 8 -1 5 6 -3 -4 -7 9 10 -2 -12 15 22 -13 16 17 -11 -18 -15 -16 -22 -14 24 25 26 -21 28 -20 -30
right_child=1 3 4 -5 -6 7 -8 -9 -10 12 11 14 13 19 20 -17 18 -19 27 23 21 -23 -24 -25 -26 -27 -28 -29 29 -31
leaf_value=-0.0420084056040258 0.0027836165432062569 0.021429114428730325 -0.028994840539354878 0.072377911069814865 0.097008932695649433 -0.031345316551983526 -0.010770066307167135 0.056042088025437156 0.014969813435819183 -0.02527652799743595 0.12770220335858909 0.15222729592339906 0.0083510083855091836 0.10430033787181088 -0.040358728277878536 -0.032779601182159467 0.19256303378021039 0.082317705862287163 -0.0035128820816417352 0.19644286524598753 0.12614853246524346 0.016067527436146197 0.13918891901634986 -0.028261326891029018 0.15408076300582951 -0.011471267927948689 -0.035955087733479336 -0.034727484826736557 0.14371113487093329 0.034089756588661563
leaf_weight=2731.0228852406144 1493.5386565327644 4757.9768160283566 2017.4317608773708 335.20592923462391 50.895304754376411 58.681754678487778 4592.3708339482546 791.77474948763847 2633.1928596496582 1151.3689042031765 82.084985449910164 29.179383754730225 35.292217686772346 42.672261044383049 86.529176726937294 829.80730298161507 17.857006743550301 58.696849524974823 312.16581472754478 31.730311691761017 59.254190191626549 222.45639857649803 57.768114626407623 306.77646838128567 54.029896229505539 466.05865150690079 18.091062918305397 128.08453826606274 53.063164561986923 256.26523919403553
leaf_count=28509 9308 22949 19679 1440 234 374 34015 3251 13449 7805 401 142 192 183 556 5813 96 298 1886 173 279 1224 274 1816 301 2828 109 842 253 1402
internal_value=-0.000314414 0.0146332 -0.0231847 0.0283924 -0.0154665 0.0257634 -0.0163326 0.0500123 0.0049275 0.00036261 0.0135013 0.0468844 -0.00642407 0.0125221 0.0301919 -0.0132568 -0.00506452 -0.0200574 0.0185758 0.00472311 0.0205218 0.0392216 0.0895699 -0.00012376 0.0150224 0.000458331 0.112055 0.0144309 0.0245621 0.0528946
internal_weight=23761.3 14369.6 9391.72 5943.64 6660.7 5608.43 6609.8 850.457 8425.96 5792.77 1973.04 479.504 3819.73 1012.42 397.419 2807.31 1977.5 1210.07 767.436 919.359 368.24 281.711 93.0603 876.686 569.91 515.88 49.8214 749.579 621.494 309.328
internal_count=160081 77644 82437 28014 53928 26574 53694 3625 49630 36181 11910 2602 24271 5876 2201 18395 12582 8103 4479 5410 2059 1503 466 5227 3411 3110 282 4383 3541 1655
is_linear=0
shrinkage=0.05


Tree=18
num_leaves=31
num_cat=0
split_feature=4 4 2 7 7 2 2 7 7 2 2 2 7 4 2 5 5 7 7 4 1 5 5 7 5 7 7 5 2 2
split_gain=2966.16 729.993 495.415 260.043 213.649 185.104 180.307 174.863 217.253 167.597 247.022 211.592 180.534 177.987 171.819 171.482 166.851 181.158 246.939 164.518 164.394 152.727 186.02 161.122 304.913 162.89 549.492 250.385 173.111 167.123
threshold=-0.065836105495691286 0.62011510133743297 11.720889568328859 4.4350000000000014 4.9150000000000009 82.275413513183608 245.01734924316409 4.4450000000000012 4.3350000000000009 54.153392791748054 48.515157699584968 49.890344619750984 2.8050000000000002 0.36867295205593115 36.178356170654304 176.50000000000003 186.50000000000003 4.8850000000000007 4.9150000000000009 -0.59939610958099354 0.10689242929220201 196.50000000000003 192.50000000000003 4.705000000000001 114.50000000000001 3.9250000000000003 3.3650000000000007 181.50000000000003 81.641326904296889 55.504220962524421
decision_type=2 2 2 2 2 2 2 2 2 2 2 2 2 2 2 2 2 2 2 2 2 2 2 2 2 2 2 2 2 2
left_child=2 5 -1 6 19 9 -3 8 -7 10 14 -12 15 -13 20 -11 17 -9 -19 -4 -2 22 23 25 -25 26 27 28 29 -14
right_child=1 3 4 -5 -6 7 -8 16 -10 12 11 13 21 -15 -16 -17 -18 18 -20 -21 -22 -23 -24 24 -26 -27 -28 -29 -30 -31
leaf_value=-0.041329788546592916 0.021391911156526486 0.021947427242626133 -0.029649629638146536 0.057608478277680952 0.09039155961318962 0.015500237152152652 0.065229379208541535 0.072617332177179222 -0.02314207011121348 -0.031025888618093345 0.10923986092618712 0.013581202270911245 0.19436079856363409 0.10331102447499081 -0.004308649886740127 0.15642155222348733 -0.020659897497165854 -0.043035934645198892 0.096748918923782401 -0.011302743357728857 0.12440844004315432 0.13526732366171784 -0.039714296369624397 0.097421411929988655 -0.00095011456362251916 -0.011735462646022213 0.094970004039884398 0.18796581741874374 0.15563018131998715 -0.010133016318973001
leaf_weight=2639.7307522967458 237.28602237254381 3710.5729705691338 1677.9486043229699 710.06461997330189 47.291303262114525 2633.3389921337366 257.31013956665993 332.12764485180378 422.02350486814976 714.99607978761196 94.622134447097778 374.72707109153271 10.099342927336691 64.826149255037308 1468.0412957817316 12.412941783666609 93.346480309963226 92.223139777779579 48.058397829532623 4495.4502805098891 46.280046865344048 20.616075858473778 287.64550188183784 123.67246045172215 216.97363501787186 1647.4323527663946 172.82274828851223 17.08616678416729 16.457418203353882 932.61002421379089
leaf_count=28490 1385 17595 16814 3017 210 12938 1122 1398 2598 4989 461 2172 56 287 9474 59 519 389 199 34362 220 90 1934 642 1273 10578 807 88 81 5834
internal_value=-0.000312279 0.0134175 -0.0231802 0.0297411 -0.0154785 0.00584176 0.0247542 0.0148908 0.0101627 0.000768294 0.0116509 0.0414153 -0.00519295 0.0268147 0.00257384 -0.0278272 0.0404245 0.0524946 0.00485231 -0.0162895 0.038205 -0.000414323 -0.00123108 0.00229745 0.0347639 -0.00165734 0.0127917 -0.00175605 -0.00513567 -0.00794225
internal_weight=23618.1 14757.7 8860.42 4677.95 6220.69 10079.7 3967.88 3621.12 3055.36 6458.61 2285.78 534.175 4172.82 439.553 1751.61 727.409 565.756 472.409 140.282 6173.4 283.566 3445.42 3424.8 3137.15 340.646 2796.51 1149.08 976.253 959.167 942.709
internal_count=160081 80205 79876 21734 51386 58471 18717 18041 15536 40430 13999 2920 26431 2459 11079 5048 2505 1986 588 51176 1605 21383 21293 19359 1915 17444 6866 6059 5971 5890
is_linear=0
shrinkage=0.05


Tree=19
num_leaves=31
num_cat=0
split_feature=2 2 7 7 2 2 2 2 2 7 7 7 6 5 7 5 7 6 7 2 5 7 5 5 5 7 2 2 2 5
split_gain=2538.67 892.867 343.958 414.644 264.575 236.724 216.903 214.845 285.367 312.463 266.758 614.561 249.025 229.579 206.243 387.091 362.956 416.439 402.696 316.126 290.899 275.678 261.553 251.607 879.921 261.276 230.368 206.041 192.449 295.689
threshold=25.161914825439457 89.663349151611342 4.4450000000000012 4.3050000000000006 185.01130676269534 89.627227783203139 11.720889568328859 127.08273696899415 191.09049987792972 2.6950000000000007 3.7950000000000004 3.6350000000000002 1.5000000000000002 112.50000000000001 3.0750000000000006 162.50000000000003 3.8650000000000007 1.5000000000000002 4.1950000000000012 80.944648742675795 150.50000000000003 3.7750000000000004 178.50000000000003 59.500000000000007 27.500000000000004 4.1750000000000007 56.35603332519532 110.5018882751465 235.43642425537112 149.50000000000003
decision_type=2 2 2 2 2 2 2 2 2 2 2 2 2 2 2 2 2 2 2 2 2 2 2 2 2 2 2 2 2 2
left_child=6 5 3 7 -5 14 -1 10 -9 -10 11 12 13 -3 15 -2 17 19 23 20 -16 -19 -17 24 -18 -26 -24 -13 -11 -30
right_child=1 2 -4 4 -6 -7 -8 8 9 28 -12 27 -14 -15 16 22 18 21 -20 -21 -22 -23 26 -25 25 -27 -28 -29 29 -31
leaf_value=-0.040549049313375218 -0.016200986093565441 0.091816502214797369 0.048292977464333468 -0.023634430372163905 0.056141235527581927 -0.058983224015990154 -0.020702898485740095 0.0062373512596278951 -0.013253071797497122 0.08725655397801732 0.067378421980615791 -0.03908758394458433 0.071631246018867209 -0.0093488704538748288 0.11443323657410674 0.1540342444375658 -0.023620621035678045 0.005524957533615673 0.010024667842394249 -0.0027201068919820771 0.029638140132442637 0.10347766518661641 -0.0079995307799684071 -0.023966925030380545 0.21116893008794713 0.013530081250566074 0.10174511832532061 0.09829718506511137 0.076424416772476536 -0.0022449259881547417
leaf_weight=2567.1966957524419 2681.0685407966375 73.346905693411827 1115.8594124019146 786.37333357334137 119.75961151719093 167.74620433151722 2968.9317061379552 2235.2813475728035 224.02031210064888 275.89474260807037 533.05296745896339 344.29323837161064 490.34912253916264 238.22149534523487 254.66433309018612 46.483171090483665 263.72676731646061 1735.2019149288535 3068.0758345797658 155.0439567565918 167.78132522106171 74.93237142264843 163.7134850397706 2057.0091054365039 64.342800885438919 22.594389855861664 67.5483378469944 29.640228003263474 225.95990683138371 253.38534939289093
leaf_count=28575 18323 322 4797 4683 515 902 27567 10682 1102 1141 2434 1782 2195 1174 1310 217 1879 10671 18958 791 983 430 1139 14397 390 136 313 128 987 1158
internal_value=-0.000308435 0.00882744 0.0228606 0.0179925 -0.0130908 -4.12662e-05 -0.0299059 0.0237132 0.0160978 0.0386054 0.0380384 0.0247375 0.0494211 0.0144667 0.000872347 -0.0103801 0.00510641 0.0213743 -0.00198698 0.058344 0.0807555 0.00957981 0.0458085 -0.0172933 0.0218543 0.159804 0.0240553 -0.0281976 0.0539877 0.0348392
internal_weight=23471.5 17935.4 6945.44 5829.58 906.133 10989.9 5536.13 4923.45 3214.54 979.26 1708.9 1175.85 801.918 311.568 10822.2 2958.81 7863.37 2387.62 5475.75 577.49 422.446 1810.13 277.745 2407.67 350.664 86.9372 231.262 373.933 755.24 479.345
internal_count=160081 103939 33100 28303 5198 70839 56142 23105 15070 4388 8035 5601 3691 1496 69937 19992 49945 14185 35760 3084 2293 11101 1669 16802 2405 526 1452 1910 3286 2145
is_linear=0
shrinkage=0.05


Tree=20
num_leaves=31
num_cat=0
split_feature=4 4 4 2 2 5 5 5 5 5 7 2 5 2 5 7 5 6 7 5 7 7 2 2 2 2 7 5 5 5
split_gain=2612.04 743.5 397.874 183.458 192.148 279.805 200.207 189.954 243.383 230.302 464.964 281.887 271.904 208.255 364.122 494.916 255.853 204.369 181.46 177.758 167.983 376.303 165.956 179.962 229.042 152.839 154.379 256.113 202.085 150.658
threshold=0.28639878332614904 -0.57148677110671986 0.7053668498992921 213.16177368164065 178.40286254882815 195.50000000000003 119.50000000000001 28.500000000000004 20.500000000000004 49.500000000000007 4.0850000000000009 168.29396820068362 50.500000000000007 89.663349151611342 84.500000000000014 3.3650000000000007 66.500000000000014 2.5000000000000004 4.3150000000000004 75.500000000000014 2.6750000000000003 3.0650000000000004 245.01734924316409 235.43642425537112 191.09049987792972 89.627227783203139 2.7950000000000004 162.50000000000003 192.50000000000003 181.50000000000003
decision_type=2 2 2 2 2 2 2 2 2 2 2 2 2 2 2 2 2 2 2 2 2 2 2 2 2 2 2 2 2 2
left_child=1 -1 3 4 5 7 -6 8 -2 10 -9 12 -11 14 15 19 17 -15 -10 -14 -18 -22 23 24 -4 26 27 -16 -28 -23
right_child=2 -3 22 -5 6 -7 -8 9 18 11 -12 -13 13 16 25 -17 20 -19 -20 -21 21 29 -24 -25 -26 -27 28 -29 -30 -31
leaf_value=-0.03493219338755138 0.12935000120136395 -0.0081434998754990624 0.029221164402288204 0.043861394272762283 0.025846148063191951 0.1141478816209382 -0.035644303852845442 0.10305851952399228 -0.029509935922248872 -0.053994842795590615 0.0085161759753027057 0.11485170490007582 -0.014354207056298751 -0.02660519306721747 -0.031579661001134761 0.10383301090553106 -0.006079802099294508 0.072768100604329408 0.079616030735062654 0.11991902876711183 0.11622103768609671 0.035555790728495046 0.07671007457613202 -0.018808425924948104 0.084596169481122641 -0.056229119625678475 0.010462653350811878 0.12618274687163195 -0.038738416665185488 -0.0017163599770067422
leaf_weight=3753.7914132922888 27.858962371945381 8355.1409964337945 1957.3661357611418 428.1066882610321 192.10749804973602 67.071795001626015 425.72842872142792 211.86833150684834 546.31167098879814 160.83437216281891 336.7569957524538 64.982962071895599 235.37043991684914 372.11180894076824 529.34821073710918 201.646918207407 291.89677749574184 60.094129875302315 40.95029915869236 27.531582355499268 131.63653203845024 1460.1647356450558 212.97529856860638 170.78799453377724 206.42947770655155 127.6161175519228 2051.7706152796745 27.039609327912331 232.33346028625965 332.94040495157242
leaf_count=41336 123 60914 9109 1876 918 280 2135 979 3341 900 1752 278 1397 1902 3484 964 1423 279 166 147 562 6941 966 832 853 704 11610 117 1592 1648
internal_value=-0.000376308 -0.016448 0.0171064 0.0119568 0.0102821 0.0124792 -0.0165247 0.0115665 -0.0150503 0.0139546 0.0450266 0.0112519 0.0101734 0.0118704 0.00374255 0.0449051 0.0224033 -0.0127883 -0.0219005 -0.000292867 0.0292651 0.0346253 0.0344584 0.0306039 0.034504 -0.00269994 -0.000295009 -0.0239126 0.00545804 0.0286352
internal_weight=23240.6 12108.9 11131.6 8584.08 8155.97 7538.14 617.836 7471.06 615.121 6855.94 548.625 6307.32 6242.34 6081.5 3432.66 464.549 2648.84 432.206 587.262 262.902 2216.64 1924.74 2547.56 2334.58 2163.8 2968.11 2840.49 556.388 2284.1 1793.11
internal_count=159528 102250 57278 45518 43642 40589 3053 40309 3630 36679 2731 33948 33670 32770 20015 2508 12755 2181 3507 1544 10574 9151 11760 10794 9962 17507 16803 3601 13202 8589
is_linear=0
shrinkage=0.05


Tree=21
num_leaves=31
num_cat=0
split_feature=4 4 4 7 2 7 7 2 2 2 5 5 7 7 7 2 5 7 2 5 7 2 7 5 7 7 5 5 5 7
split_gain=2384.37 586.586 458.813 226.223 166.016 157.308 319.713 175.551 208.557 171.036 160.995 259.769 150.621 148.1 158.339 142.999 260.509 167.355 161.087 187.172 183.212 237.115 161.543 335.553 250.227 375.246 220.23 175.432 468.159 268.268
threshold=0.16235208511352542 -0.57148677110671986 0.62541183829307567 4.4350000000000014 245.01734924316409 3.4550000000000005 2.6750000000000003 89.627227783203139 94.079864501953139 99.081146240234389 149.50000000000003 148.50000000000003 4.8750000000000009 4.9450000000000012 4.8850000000000007 141.8599548339844 195.50000000000003 4.2750000000000012 54.153392791748054 113.50000000000001 4.8150000000000004 36.496532440185554 4.5950000000000006 183.50000000000003 4.705000000000001 4.6750000000000007 188.50000000000003 28.500000000000004 49.500000000000007 4.2350000000000012
decision_type=2 2 2 2 2 2 2 2 2 2 2 2 2 2 2 2 2 2 2 2 2 2 2 2 2 2 2 2 2 2
left_child=1 -1 13 4 5 6 -4 -7 -9 -10 11 -8 -3 14 15 16 18 -17 19 20 21 -2 27 24 25 -24 -25 -20 29 -29
right_child=2 12 3 -5 -6 7 10 8 9 -11 -12 -13 -14 -15 -16 17 -18 -19 22 -21 -22 -23 23 26 -26 -27 -28 28 -30 -31
leaf_value=-0.034150084123942985 -0.028472994561720429 -0.010611014964132394 0.002051361208917836 0.053699330625950482 0.062687356601851874 0.055735360386311883 0.053574156534695772 -0.037131836463580085 0.10620723404703741 0.010560590711477471 0.093138466301611614 -0.038811500145743513 0.0337601633908437 0.063189384759846132 -0.028539035960700052 0.017324056345537235 0.10972798383707807 0.077508270531436968 -0.030284941529629128 5.8986196191418364e-05 -0.041025093041804073 0.079220511812167438 0.11998374320226755 -0.052039645373743976 0.084938208504336365 -0.022608254231711533 0.13883954731851353 0.099890954661890533 -0.002563920396547942 0.0059474363617368379
leaf_weight=3650.4254197180271 61.470711588859558 6654.9649118036032 502.48330765962601 676.36825886368752 239.25767701864243 206.73243087530136 539.58801972866058 233.21891030669212 47.978827506303787 1810.235111117363 189.39181292057037 88.579051956534386 196.91904585808516 116.17618416249752 312.84393940865993 711.81243714690208 59.235155642032623 137.88273291289806 475.47392012178898 375.91733518242836 49.958989962935448 303.2954225987196 61.116236448287964 159.25117713212967 226.43738520145416 188.2715579867363 16.695436865091324 182.24990127980709 4491.6672464907169 130.34266026318073
leaf_count=41336 368 50845 2422 2935 1099 912 2316 1301 197 8626 782 488 1195 538 1775 3279 250 608 3058 2159 257 1505 266 935 1046 1094 75 884 26210 767
internal_value=-0.000368465 -0.0179608 0.0143021 0.0270268 0.02235 0.0196826 0.0334387 0.0117813 0.00743653 0.0130302 0.0527298 0.0405467 -0.00933581 0.00714449 0.00632486 0.00775414 0.00533135 0.0270903 0.00441141 0.0256115 0.048773 0.0610719 0.00158553 0.0250705 0.0468862 0.0123361 -0.0339273 -0.00131364 0.00155363 0.060719
internal_weight=23096.2 10502.3 12593.9 4533.83 3857.47 3618.21 1320.04 2298.17 2091.43 1858.21 817.559 628.167 6851.88 8060.1 7943.92 7631.08 6781.38 849.695 6722.15 790.642 414.725 364.766 5931.51 651.772 475.825 249.388 175.947 5279.73 4804.26 312.593
internal_count=159528 93376 66152 21078 18143 17044 6008 11036 10124 8823 3586 2804 52040 45074 44536 42761 38874 3887 38624 4289 2130 1873 34335 3416 2406 1360 1010 30919 27861 1651
is_linear=0
shrinkage=0.05


Tree=22
num_leaves=31
num_cat=0
split_feature=4 4 2 4 5 5 5 5 5 2 5 5 2 2 5 2 2 5 2 2 2 5 5 5 2 5 6 2 2 5
split_gain=2171.52 664.61 338.357 257.268 155.263 226.239 243.937 168.922 187.594 146.875 132.578 115.873 113.62 155.532 114.28 109.385 106.418 297.324 325.862 224.764 214.971 177.546 170.487 197.154 189.344 196.802 160.083 159.781 165.079 153.183
threshold=0.28639878332614904 -0.57148677110671986 245.88967132568362 0.7053668498992921 28.500000000000004 49.500000000000007 50.500000000000007 40.500000000000007 36.500000000000007 10.513801574707033 26.500000000000004 23.500000000000004 5.6245851516723642 6.9792609214782724 96.500000000000014 60.645399093627937 89.663349151611342 84.500000000000014 57.746229171752937 104.3914031982422 56.35603332519532 195.50000000000003 66.500000000000014 105.50000000000001 180.61357116699222 107.50000000000001 2.5000000000000004 141.72466278076175 144.105583190918 51.500000000000007
decision_type=2 2 2 2 2 2 2 2 2 2 2 2 2 2 2 2 2 2 2 2 2 2 2 2 2 2 2 2 2 2
left_child=1 12 3 4 10 7 -7 8 -6 -3 -2 -11 -1 14 -14 -13 17 18 20 26 -8 -19 -21 27 25 -25 -18 -24 -29 -20
right_child=2 9 -4 -5 5 6 16 -9 -10 11 -12 15 13 -15 -16 -17 19 21 29 22 -22 -23 23 24 -26 -27 -28 28 -30 -31
leaf_value=-0.048884294213128725 0.013063924930876032 -0.033315787302632058 0.062526168721661279 0.028443209792642421 0.059845318608629829 -0.052695853928096593 0.054483047251340823 0.08280036379322217 -0.0081114676195042437 0.046229206617226626 -0.033654583868632827 -0.003752264395771573 0.48944084236015239 -0.029064072706394391 0.080577892708373997 -0.019477984677251287 0.026365830913243161 -0.00279823173370345 -0.0082144417931359123 -0.017750755260211738 -0.048592127863710227 0.10341248793165968 0.096782022224509295 -0.031833952133523032 -0.014228768875602139 0.025946695563441875 0.079997374711806429 -0.046683795202405703 0.045169230040320626 0.095230870129545439
leaf_weight=885.88839809596539 260.19150407612324 516.97521977871656 369.7561487108469 2365.7188099622726 192.74346263706684 155.36932745575905 87.053050726652145 174.78471855819225 214.64553497731686 105.59067291766405 364.71939572691917 6307.7565734684467 2.0209152251482001 2652.399131141603 11.07461543381214 1340.8576510548592 432.74429109692574 2958.4466165155172 42.745750218629837 442.24199263751507 120.74535892903805 39.877493724226952 115.40501162409782 166.74629452824593 599.40013974905014 1268.1140526682138 205.07468374073505 59.878761172294617 267.1601050645113 219.84247276186943
leaf_count=10959 1503 5748 1717 10886 940 900 436 775 1109 691 2233 45803 25 30215 137 8672 2061 17507 272 2295 783 163 489 983 2910 5987 874 263 1175 1017
internal_value=-0.00035963 -0.0152794 0.0154979 0.0138809 0.00977376 0.0117038 0.00927342 0.0416816 0.0240402 -0.00751134 -0.0142026 -0.00579095 -0.0333712 -0.0282154 0.143674 -0.0065091 0.0106439 0.00441251 0.0413709 0.016721 -0.00541081 -0.00138564 0.0108455 0.0159517 0.00937267 0.019232 0.0436097 0.0462006 0.0283515 0.0783914
internal_weight=22946 11822.6 11123.4 10753.6 8387.93 7763.02 7180.85 582.174 407.389 8271.18 624.911 7754.2 3551.38 2665.49 13.0955 7648.61 7025.48 3468.71 470.387 3556.77 207.798 2998.32 2918.95 2476.7 2034.26 1434.86 637.819 442.444 327.039 262.588
internal_count=159528 102250 57278 55561 44675 40939 38115 2824 2049 60914 3736 55166 41336 30377 162 54475 37215 20178 2508 17037 1219 17670 14102 11807 9880 6970 2935 1927 1438 1289
is_linear=0
shrinkage=0.05


Tree=23
num_leaves=31
num_cat=0
split_feature=4 4 2 2 7 7 2 7 7 7 5 5 5 7 7 0 5 2 6 5 2 7 5 2 4 7 2 7 4 2
split_gain=2001.91 502.863 444.431 227.485 192.885 191.24 159.792 150.667 212.858 196.794 190.481 477.127 190.054 170.593 168.667 155.605 144.982 299.995 387.338 214.33 321.308 226.205 146.918 138.128 131.244 128.775 119.795 118.798 118.631 116.358
threshold=-0.023379143327474591 0.48422531783580786 11.720889568328859 245.88967132568362 4.9150000000000009 4.4350000000000014 57.746229171752937 3.9050000000000007 3.9650000000000003 2.6750000000000003 64.500000000000014 114.50000000000001 25.500000000000004 2.5150000000000001 4.0150000000000006 0.018897797912359241 151.50000000000003 184.45829772949222 2.5000000000000004 148.50000000000003 144.105583190918 3.0250000000000004 136.50000000000003 63.61742019653321 -0.64692756533622731 3.7750000000000004 35.106563568115241 3.3050000000000002 0.56977766752243053 156.13333129882815
decision_type=2 2 2 2 2 2 2 2 2 2 2 2 2 2 2 2 2 2 2 2 2 2 2 2 2 2 2 2 2 2
left_child=2 26 -1 5 24 7 -7 9 -9 13 12 -12 -11 -3 29 -16 19 28 -19 20 21 22 -13 -24 -4 -20 -2 -21 -18 -10
right_child=1 3 4 -5 -6 6 -8 8 14 10 11 16 -14 -15 15 -17 17 18 25 27 -22 -23 23 -25 -26 -27 -28 -29 -30 -31
leaf_value=-0.038358802732662414 0.042256418518677563 0.1135857775277527 -0.029010180749824584 0.059681963260751716 0.082742244037352475 -0.022506579301213955 0.042613405900319007 -0.041820626224529409 0.095808234328252417 0.10720361875355289 0.073817948981849596 -0.04700814382926656 -0.00025284215801891396 -0.0048447340155460443 0.020773109262727546 -0.0070374552794397124 0.026383668070317251 0.10857761410668028 -0.026049442197719902 0.11766323733770841 0.10438480623091734 0.037982698473368562 -0.040754507308737892 0.15253461013218375 -0.010012590287536751 0.14406071414473415 -0.00031402361775957816 -0.037473200587211652 0.081884988564368058 -0.0063392966551722649
leaf_weight=2291.3935691565275 169.69778545200825 31.549256637692451 1107.6792126372457 339.26531726121902 52.592931970953941 103.63858975470066 1034.7635596841574 224.70953023433685 90.511892691254616 43.487519308924675 560.50425180792809 193.86251020431519 764.97510324418545 839.81565504521132 931.82186546176672 1092.8798808977008 142.34259715676308 71.887932121753693 307.51037076115608 12.950967967510222 101.25081320106983 267.52144123613834 17.455444350838661 19.645368754863739 5071.601337954402 11.542853623628615 6316.52227909863 261.63569904863834 297.51845115423203 40.288901910185814
leaf_count=28469 908 129 12506 1622 228 630 4483 1275 390 183 2354 1188 3852 4258 4669 5739 688 298 1522 55 421 1141 122 91 40985 51 38507 1322 1248 194
internal_value=-0.000351508 0.0110877 -0.0195298 0.0196392 -0.0126065 0.0178191 0.036685 0.0144239 0.00448894 0.0204175 0.0263627 0.0337976 0.00552728 -0.000556755 0.00931668 0.00576171 0.0206422 0.0355989 0.003729 0.00642995 0.0231808 0.00668682 -0.0295627 0.0615946 -0.013418 -0.0198951 0.000799739 -0.0301561 0.0639243 0.064345
internal_weight=22812.8 14289.6 8523.27 7803.34 6231.87 7464.07 1138.4 6325.67 2380.21 3945.46 3074.09 2265.63 808.463 871.365 2155.5 2024.7 1705.12 830.802 390.941 874.322 599.736 498.485 230.963 37.1008 6179.28 319.053 6486.22 274.587 439.861 130.801
internal_count=159528 77340 82188 37925 53719 36303 5113 31190 12267 18923 14536 10501 4035 4387 10992 10408 8147 3807 1871 4340 2963 2542 1401 213 53491 1573 39415 1377 1936 584
is_linear=0
shrinkage=0.05


Tree=24
num_leaves=31
num_cat=0
split_feature=4 4 2 2 7 7 6 7 7 7 7 7 5 5 5 7 5 6 7 7 0 5 2 6 5 2 7 5 4 2
split_gain=1827.3 456.062 426.224 214.702 174.121 172.025 152.849 139.987 172.93 136.665 195.267 178.204 173.24 431.455 184.045 359.655 175.551 153.327 179.109 151.409 139.455 130.443 268.35 329.255 195.08 285.786 204.916 134.564 123.896 118.971
threshold=-0.023379143327474591 0.48422531783580786 11.720889568328859 245.88967132568362 4.4350000000000014 4.9150000000000009 1.5000000000000002 4.6750000000000007 4.7950000000000008 3.9050000000000007 3.9650000000000003 2.6750000000000003 64.500000000000014 114.50000000000001 49.500000000000007 3.7850000000000006 30.500000000000004 2.5000000000000004 2.6050000000000004 4.0150000000000006 0.018897797912359241 151.50000000000003 182.83122253417972 2.5000000000000004 148.50000000000003 144.105583190918 3.0250000000000004 136.50000000000003 -0.64692756533622731 63.61742019653321
decision_type=2 2 2 2 2 2 2 2 2 2 2 2 2 2 2 2 2 2 2 2 2 2 2 2 2 2 2 2 2 2
left_child=2 -2 -1 4 9 28 7 -6 -9 11 -11 17 14 -14 15 -13 -17 -3 -19 -12 -21 24 -23 -24 25 26 27 -15 -4 -29
right_child=1 3 5 -5 6 -7 -8 8 -10 10 19 12 13 21 -16 16 -18 18 -20 20 -22 22 23 -25 -26 -27 -28 29 -30 -31
leaf_value=-0.037644143505291897 0.00075897174126340189 -0.013249126944035516 -0.028228590883024308 0.058095139816943309 0.061944127237886851 0.077085246888680126 0.049936987436805941 -0.045593820114265111 0.026532416537841497 -0.040631418547740189 0.060852037196976676 0.077449075739689927 0.070325374328909729 -0.045858776741119482 -0.016677965989804294 -0.042411923202390789 0.0985846256497801 0.09682566545049609 0.0035531685795390463 0.019588903406562753 -0.0067050423407477846 0.062548518920083326 0.1029540031472676 -0.014538564242825586 -0.029115783452608554 0.09818241785431174 0.035843889609271061 -0.039787550687375661 -0.0095806274433033068 0.1392825097744432
leaf_weight=2219.9767017140985 6488.3741726353765 636.40912245959044 1082.0903553590178 331.30857883393764 108.44695082306862 53.602167934179306 682.20409433543682 141.4911525696516 201.38980241119862 219.84706678986549 131.36462691426277 196.87715789675713 558.95836882293224 188.91209788620472 438.24880802631378 147.45339322090149 25.963437229394913 76.546023979783058 157.10994172096252 938.56628918647766 1089.7891884148121 411.1152118742466 72.018768817186356 346.57958546280861 270.33051803708076 102.23627337813377 269.26338939368725 16.997426956892014 5036.1782016977668 20.416923776268959
leaf_count=28469 39415 3344 12506 1622 453 228 3006 750 904 1275 584 856 2354 1188 2232 842 105 320 723 4669 5739 1796 298 1713 1377 421 1141 122 40985 91
internal_value=-0.000341555 0.0105474 -0.0188555 0.018711 0.0169592 -0.0120974 0.0350031 0.0124297 -0.00323075 0.0137204 0.00426107 0.0194399 0.0251084 0.0322231 0.00524978 0.0312016 -0.0213024 -0.000531003 0.0341094 0.00883087 0.00546177 0.0196794 0.0338557 0.00567573 0.00613083 0.022069 0.00636737 -0.0287012 -0.0128787 0.0579306
internal_weight=22660.1 14268.2 8391.85 7779.84 7448.54 6171.87 1133.53 451.328 342.881 6315 2379.57 3935.44 3065.37 2256.83 808.543 370.294 173.417 870.065 233.656 2159.72 2028.36 1697.87 829.714 418.598 868.157 597.826 495.59 226.326 6118.27 37.4144
internal_count=159528 77340 82188 37925 36303 53719 5113 2107 1654 31190 12267 18923 14536 10501 4035 1803 947 4387 1043 10992 10408 8147 3807 2011 4340 2963 2542 1401 53491 213
is_linear=0
shrinkage=0.05


Tree=25
num_leaves=31
num_cat=0
split_feature=4 4 2 2 2 7 2 2 5 5 5 7 2 7 7 5 5 5 7 5 7 7 6 7 7 7 4 2 2 7
split_gain=1665.1 499.253 328.06 207.712 192.99 162.305 120.244 201.403 335.721 309.912 247.493 168.092 432.991 401.393 285.622 164.419 163.137 353.176 156.92 313.053 172.151 165.972 150.554 145.682 134.056 142.943 155.769 120.055 150.178 139.283
threshold=-0.18656685948371884 0.50664284825325023 11.720889568328859 245.88967132568362 36.178356170654304 4.9450000000000012 43.120813369750984 54.153392791748054 108.50000000000001 185.50000000000003 98.500000000000014 2.9350000000000005 45.115535736083991 4.3950000000000005 3.5250000000000004 35.500000000000007 121.50000000000001 140.50000000000003 4.5950000000000006 183.50000000000003 4.6750000000000007 4.7750000000000012 2.5000000000000004 2.9850000000000008 4.705000000000001 4.8950000000000005 0.011169612407684328 57.48936843872071 57.746229171752937 4.4350000000000014
decision_type=2 2 2 2 2 2 2 2 2 2 2 2 2 2 2 2 2 2 2 2 2 2 2 2 2 2 2 2 2 2
left_child=2 4 -1 5 -2 27 -6 8 10 16 11 -8 -13 14 22 -15 23 -18 -9 20 -20 -21 -14 -10 -22 26 -26 -3 -29 -30
right_child=1 3 -4 -5 6 -7 7 18 9 -11 -12 12 13 15 -16 -17 17 -19 19 21 24 -23 -24 -25 25 -27 -28 28 29 -31
leaf_value=-0.036959787050461372 0.028889638750215649 0.071421099083075104 -0.01340972945911361 0.058070304467949009 -0.016203876183602584 0.077732632986970918 -0.012258888731372162 -0.0070430059970952689 0.1607568688550236 0.14346608804942024 0.16835813957391907 0.22334210321104397 0.13454856676356905 0.15322703037028232 0.16391066631589968 -0.019488650796457414 0.22565567705438491 0.0011815882441400674 0.12698105853392802 0.15777084340790026 -0.016322566717628863 -0.043427813949460443 0.014579490781062061 -0.038157525626088991 -0.036090318352221686 0.0080060864236019547 0.088577623009461551 -0.050585359569970269 0.012852570153948202 0.034395564491749901
leaf_weight=2142.4065157696605 554.00499845296144 94.785722881555557 4774.2085384204984 313.58866609632969 1200.8241087049246 106.50645193457603 138.95962004363537 4462.5247360318899 9.4264513850212079 33.154419913887978 37.568077489733696 33.576771602034569 34.615724131464958 14.711789995431898 76.329844638705254 217.39612025022507 18.800454989075661 257.79982036352158 49.430565968155861 10.79166543483734 122.01610220968723 204.21816448867321 106.94669327139854 391.43464688956738 29.105987191200256 156.12351016700268 180.06990885734558 86.806907370686531 5878.6450214534998 860.05253632366657
leaf_count=28385 3462 447 43906 1582 8399 468 954 27591 49 157 195 199 165 70 411 1329 110 1592 222 51 751 1284 623 2646 209 758 886 583 28811 3740
internal_value=-0.000268332 0.00874607 -0.0207043 0.0182559 0.000375886 0.0164791 -0.00165303 0.00100043 0.0180553 -0.00579389 0.0437294 0.0362085 0.050136 0.0372122 0.0859507 -0.00854134 -0.0130986 0.016439 -0.00348292 0.0176502 0.0380716 -0.0333294 0.0439151 -0.03348 0.0290531 0.0442094 0.0712306 0.0155364 0.0147603 0.0156021
internal_weight=22596.8 15680.2 6916.62 7340.39 8339.83 7026.8 7785.83 6585 1370.72 710.616 660.105 622.537 483.577 450 217.892 232.108 677.461 276.6 5214.28 751.756 536.746 215.01 141.562 400.861 487.316 365.299 209.176 6920.29 6825.5 6738.7
internal_count=160035 87744 72291 35631 52113 34049 48651 40252 8500 4554 3946 3751 2797 2598 1199 1399 4397 1702 31752 4161 2826 1335 788 2695 2604 1853 1095 33581 33134 32551
is_linear=0
shrinkage=0.05


Tree=26
num_leaves=31
num_cat=0
split_feature=2 2 2 7 2 7 5 2 7 5 2 5 2 5 2 7 6 7 2 5 7 7 2 5 7 7 5 5 5 7
split_gain=1500.92 449.594 293.942 256.045 217.436 245.535 221.511 215.662 211.491 192.666 177.544 176.139 183.497 158.621 306.402 425.219 183.341 173.223 168.136 180.995 168.523 317.556 152.616 151.715 211.461 405.193 310.215 294.459 325.984 208.141
threshold=25.161914825439457 94.079864501953139 99.081146240234389 4.4450000000000012 191.09049987792972 2.6950000000000007 149.50000000000003 178.40286254882815 4.3950000000000005 186.50000000000003 5.6245851516723642 149.50000000000003 152.37262725830081 117.50000000000001 29.57458591461182 2.9950000000000006 1.5000000000000002 2.9850000000000008 71.832580566406264 108.50000000000001 2.8550000000000004 2.8750000000000004 61.893291473388679 135.50000000000003 3.8650000000000007 4.1550000000000011 140.50000000000003 162.50000000000003 171.50000000000003 3.2650000000000001
decision_type=2 2 2 2 2 2 2 2 2 2 2 2 2 2 2 2 2 2 2 2 2 2 2 2 2 2 2 2 2 2
left_child=10 13 -3 4 7 -6 -7 8 -4 -5 -1 12 -10 14 15 16 17 -2 20 -20 22 -22 -16 -15 26 -26 -25 -28 -29 -30
right_child=1 2 3 9 5 6 -8 -9 11 -11 -12 -13 -14 23 18 -17 -18 -19 19 -21 21 -23 -24 24 25 -27 27 28 29 -31
leaf_value=-0.044951047544850867 0.26382764665924796 0.064431322795202514 0.014145243386260296 0.045990558414922521 -0.01597133131882526 0.066796751414886738 0.014785777853108842 -0.021288674387972596 -0.03859849132101318 -0.031554594506472904 -0.020436475957376979 0.20305475914801635 0.16845405818682713 -0.020011069709702206 -0.026931518802979906 0.1388035808069924 -0.036489156675163503 -0.025127494536978663 0.014431284847094335 0.089427027666794098 0.22462421508007779 0.0021993769533792365 0.21677481318080322 0.12655696276006237 -0.032264720062389673 0.0099676401888233405 -0.011221462265651601 0.12326009709772064 0.051579315921987362 -0.0055355115265149054
leaf_weight=912.7375100851059 11.105019554495811 310.56697814911604 3151.2530752718449 847.02478255331516 222.92730289697647 450.522784948349 375.20020578801632 652.09065529704094 335.37450924515724 88.466713041067123 3870.7410946711898 8.1581972986459714 11.053275123238562 1395.905007623136 640.7560630813241 101.61492373049259 85.726390607655048 9.7319709211587906 1288.1794013306499 85.810320511460304 16.117297410964966 3678.4300193563104 6.4890620559453955 57.853134773671627 1112.328730084002 1160.4999105855823 856.37218148261309 86.25183941423893 286.45131213963032 359.96676978468895
leaf_count=12701 78 1392 14708 3730 1103 2048 1712 3472 2060 511 43405 44 53 9691 4716 688 751 67 6780 382 98 24327 37 329 7671 7194 5932 402 1742 2211
internal_value=-0.00026494 0.00645357 0.0169731 0.0145734 0.0102461 0.0305923 0.0431635 0.00511473 0.0100258 0.0386573 -0.0251141 -0.0265843 -0.0319922 0.000414333 0.00604094 0.065625 -0.00415539 0.12887 0.00387079 0.019115 -0.000953357 0.0031697 -0.0244882 -0.00585619 -0.000815309 -0.010701 0.0128276 0.00868701 0.0319568 0.0197741
internal_weight=22475.7 17692.2 6452.64 6142.07 5206.58 1048.65 825.723 4157.93 3505.84 935.491 4783.48 354.586 346.428 11239.6 5923.96 208.178 106.563 20.837 5715.78 1373.99 4341.79 3694.55 647.245 5315.63 3919.72 2272.83 1646.9 1589.04 732.67 646.418
internal_count=160035 103929 30833 29441 25200 4863 3760 20337 16865 4241 56106 2157 2113 73096 37924 1584 896 145 36340 7162 29178 24425 4753 35172 25481 14865 10616 10287 4355 3953
is_linear=0
shrinkage=0.05


Tree=27
num_leaves=31
num_cat=0
split_feature=4 4 2 2 6 7 2 1 5 2 2 7 7 7 7 2 1 5 7 7 7 2 5 7 5 7 2 2 7 5
split_gain=1412.73 549.454 200.774 179.353 160.599 198.779 188.541 197.6 201.053 205.271 184.905 210.653 191.212 173.433 244.422 170.294 293.783 148.459 146.512 144.65 302.027 178.388 174.991 143.156 138.754 135.579 130.523 369.433 193.033 133.847
threshold=-0.41082864999771113 0.48422531783580786 11.720889568328859 245.88967132568362 1.5000000000000002 2.5550000000000002 63.61742019653321 0.080081079155206694 44.500000000000007 45.855806350708015 66.910102844238295 3.4450000000000007 3.9450000000000007 4.0450000000000008 4.0650000000000004 42.551055908203132 0.10167857259511949 149.50000000000003 4.9450000000000012 3.8450000000000002 3.6750000000000003 38.89245796203614 160.50000000000003 3.0350000000000006 55.500000000000007 2.8850000000000002 43.120813369750984 44.854904174804695 4.8250000000000011 84.500000000000014
decision_type=2 2 2 2 2 2 2 2 2 2 2 2 2 2 2 2 2 2 2 2 2 2 2 2 2 2 2 2 2 2
left_child=2 4 -1 18 6 -6 7 -2 9 23 -8 -12 -13 19 -15 16 -16 -14 -3 20 22 -22 24 -9 -7 -10 -17 -28 29 -29
right_child=1 3 -4 -5 5 13 10 8 25 -11 11 12 17 14 15 26 -18 -19 -20 -21 21 -23 -24 -25 -26 -27 27 28 -30 -31
leaf_value=-0.036777592068462199 -0.00063429835342042687 0.013856976103055182 -0.015949709653778732 0.053702930988791031 0.14013909128830013 0.0082559766508325718 -0.03563016512884952 0.26852788273121642 0.0022722483272266691 0.14003865278316946 -0.014073318604682795 0.14326831458272102 0.0079286599082968607 0.20728181184901315 0.0070698094465788605 -0.045435355048254696 0.096405528618788205 0.11431156288337192 0.07129924179920083 -0.027773708746452349 0.00061361684792942024 0.092513794699937049 0.017306962881415616 -0.031689130909387672 -0.020637590957627155 0.060345550887370064 0.20924411543505764 0.017893412254611062 0.055110788806537275 -0.013984950505892225
leaf_weight=1908.1343299001455 629.57354990392923 7353.1258125528693 2939.5779045000672 307.26090784370899 23.379628762602806 508.19591127336025 366.50501970946789 4.0625985637307158 123.57357503473759 21.07241028547287 427.90917868167162 39.685688465833664 205.15690127015114 14.771017052233217 356.4356507435441 165.88955034315586 124.05712298303843 39.034274384379387 112.70831415057182 1076.4835228100419 96.553496614098549 116.54068738222122 480.395850867033 175.75935466587543 2278.3118840679526 538.31982398033142 21.022636786103249 439.06993815302849 139.4227008074522 1316.7306689843535
leaf_count=27048 4187 36004 30772 1619 130 3393 2614 27 898 96 2577 179 1037 91 2600 1132 828 184 511 7918 665 596 3034 1273 15490 3352 117 2572 671 8420
internal_value=-0.000262271 0.00635395 -0.0241479 0.0162649 -0.00156543 -0.0054156 0.0091543 0.0206645 0.0362061 -0.00760493 -0.00677586 0.00808148 0.0414771 -0.00589262 0.00447305 0.00330406 0.0301352 0.0249341 0.0147242 -0.011756 -0.0068012 0.0508736 -0.0105632 -0.0249065 -0.0153681 0.0495034 -0.00288773 0.00079562 -0.00151658 -0.00601318
internal_weight=22348.7 17501 4847.71 7773.1 9727.91 7157.26 2570.65 1492.36 862.788 200.894 1078.29 711.786 283.877 7133.88 2577.4 2562.63 480.493 244.191 7465.83 4556.48 3480 213.094 3266.9 179.822 2786.51 661.893 2082.14 1916.25 1895.22 1755.8
internal_count=160035 102215 57820 38134 64081 47657 16424 9833 5646 1396 6591 3977 1400 47527 16431 16340 3428 1221 36515 31096 23178 1261 21917 1300 18883 4250 12912 11780 11663 10992
is_linear=0
shrinkage=0.05


Tree=28
num_leaves=31
num_cat=0
split_feature=4 4 2 7 2 2 2 5 5 5 4 5 5 7 7 7 2 7 6 6 2 7 2 2 7 7 2 7 5 5
split_gain=1303.73 391.023 289.372 165.05 135.84 145.411 151.511 284.595 259.976 200.704 184.833 148.621 266.735 136.387 316.709 244.368 237.291 231.313 163.842 145.437 134.508 131.819 124.177 231.17 188.904 200.154 226.328 181.313 162.17 118.821
threshold=-0.18656685948371884 0.62541183829307567 11.720889568328859 4.4350000000000014 36.178356170654304 43.120813369750984 54.153392791748054 108.50000000000001 185.50000000000003 98.500000000000014 0.27037768065929418 121.50000000000001 140.50000000000003 2.9350000000000005 4.3950000000000005 4.4450000000000012 50.640951156616218 3.5250000000000004 2.5000000000000004 2.5000000000000004 245.01734924316409 2.9850000000000008 127.08273696899415 106.57639312744142 3.6350000000000002 3.9650000000000003 89.627227783203139 4.3050000000000006 156.50000000000003 28.500000000000004
decision_type=2 2 2 2 2 2 2 2 2 2 2 2 2 2 2 2 2 2 2 2 2 2 2 2 2 2 2 2 2 2
left_child=2 4 -1 20 -2 -6 7 9 11 13 -8 21 -13 -7 17 -16 -17 19 -18 -15 22 -9 23 24 -3 26 -26 -25 -27 -12
right_child=1 3 -4 -5 5 6 10 8 -10 -11 29 12 -14 14 15 16 18 -19 -20 -21 -22 -23 -24 27 25 28 -28 -29 -30 -31
leaf_value=-0.03494987951502497 0.026488822795456481 0.038619198492732522 -0.012066329719064899 0.044040072977018403 -0.015160021156792601 -0.0093653630021225242 -0.014147720369707711 0.14325835201219109 0.12577343250942044 0.14860839263439724 -0.018196041261698083 0.18141202579952462 0.0025557556816925464 0.12544546063125903 -0.051698852837122389 0.12945237643453597 -0.025666756171959418 0.14776728409250114 0.16403529418093435 0.018342132261374159 0.055364111412635891 -0.035691003210341486 0.0066459979523905595 0.083086820674473344 0.094138105268440742 0.066995603392059525 -0.040826401410621181 -0.0017321223672212391 -0.011173235154407964 0.0066823744888498769
